{"learner":{"attributes":{"best_iteration":"171","best_ntree_limit":"172","best_score":"1.7116178179769668","scikit_learn":"{\"n_estimators\": 172, \"objective\": \"reg:squarederror\", \"max_depth\": 4, \"max_leaves\": null, \"max_bin\": null, \"grow_policy\": null, \"learning_rate\": 0.2038298608008555, \"verbosity\": null, \"booster\": null, \"tree_method\": null, \"gamma\": 0.4866695626319013, \"min_child_weight\": null, \"max_delta_step\": null, \"subsample\": 0.8630421607056131, \"sampling_method\": null, \"colsample_bytree\": 0.7848716719102183, \"colsample_bylevel\": null, \"colsample_bynode\": null, \"reg_alpha\": null, \"reg_lambda\": null, \"scale_pos_weight\": null, \"base_score\": null, \"missing\": NaN, \"num_parallel_tree\": null, \"random_state\": null, \"n_jobs\": null, \"monotone_constraints\": null, \"interaction_constraints\": null, \"importance_type\": null, \"gpu_id\": null, \"validate_parameters\": null, \"predictor\": null, \"enable_categorical\": false, \"max_cat_to_onehot\": null, \"eval_metric\": [\"rmse\"], \"early_stopping_rounds\": null, \"callbacks\": null, \"evals_result_\": {\"validation_0\": {\"rmse\": [14.660105429962222, 12.360233022627277, 10.586665565096007, 9.31591082725714, 8.304159657800017, 7.555868276579756, 6.955416224471275, 6.475267343275018, 6.159474443976953, 5.906189727243241, 5.6838974045565935, 5.5273179988479315, 5.282797473270025, 5.189788835912969, 5.116317920091139, 5.053834700116063, 4.894284132766837, 4.755724726764251, 4.686852932887725, 4.616307200711982, 4.547451811747289, 4.472254939951184, 4.420915761071796, 4.3959578657599145, 4.381167742209862, 4.353644542604783, 4.3148274130269275, 4.252650074752924, 4.199586034169577, 4.165395650338578, 4.140938700744935, 4.06417975846509, 3.986650619727801, 3.9720207859262553, 3.9291189214592595, 3.868943637078091, 3.854413963709974, 3.8383328442244475, 3.7912906701454396, 3.7590233311621124, 3.743192004632874, 3.7270063929662456, 3.7079737089603215, 3.6565317399472055, 3.6183031997590684, 3.586951903101455, 3.547572148644175, 3.509196564589617, 3.477192531690369, 3.465122713263529, 3.440659677021041, 3.4006751285080905, 3.3937433159771015, 3.35705047134405, 3.308761194468826, 3.2847970214422406, 3.242422806048676, 3.232028632170938, 3.210434180359337, 3.201905446219251, 3.169172380918674, 3.1627272594955174, 3.144118604253045, 3.1167600423004655, 3.090956026417699, 3.0628476956808677, 3.024907472354595, 3.005519478455472, 2.9809873441751624, 2.966117296158383, 2.946186400249393, 2.937666155632823, 2.90383436114514, 2.8888814774189497, 2.858979436329484, 2.8375465171073873, 2.821160871782175, 2.809238366274088, 2.7836317571681994, 2.7660734387538515, 2.7489985373740056, 2.7366048154577323, 2.7315458471304606, 2.7025093991254088, 2.6842548107516304, 2.669082014272441, 2.6588502227840056, 2.632178828887153, 2.61590429949633, 2.592258479714585, 2.5779925880088315, 2.561621806624358, 2.54484308275645, 2.507246293927303, 2.490303332180406, 2.472446819729096, 2.4580638392544567, 2.4454369571740804, 2.4303784297118556, 2.421784678954679, 2.4098429304464153, 2.401451744655016, 2.385244401090836, 2.36758232644538, 2.353628385144139, 2.339605364482849, 2.3203760586889857, 2.3088357219807243, 2.3000535486186804, 2.292282957245668, 2.2724735268262766, 2.2545139207872924, 2.242301794855855, 2.229724889715378, 2.2207094338713222, 2.2113526723221772, 2.2057202141439527, 2.188970235420747, 2.1843129565893835, 2.175306923712225, 2.158551038068344, 2.144768783385734, 2.135964674482933, 2.124999043196772, 2.1145711999315564, 2.103711728124776, 2.0972383710390807, 2.0805916319139577, 2.07558960006207, 2.06172221317506, 2.053854205610451, 2.043900641965483, 2.0357718388859674, 2.0190162484250798, 2.012729842786399, 2.0042973200170273, 1.9957341418124745, 1.9875283061287583, 1.9793635631930264, 1.9692490951609034, 1.9613629782510067, 1.9541931653121967, 1.9464930766808077, 1.933971280463284, 1.9249832920364438, 1.9187426863879584, 1.9142194565857835, 1.9093521052021911, 1.896346723128063, 1.8899235951314945, 1.882160763220303, 1.8757862367404745, 1.8671878584188, 1.8579491046481853, 1.8469580971673492, 1.83826520561098, 1.8308732027965597, 1.8200981156291187, 1.8150928048937, 1.807234906315147, 1.8001753372278184, 1.793687266923149, 1.7837834386747762, 1.7743801694663417, 1.764314585320454, 1.7566065837623854, 1.7501334782489228, 1.741269535828248, 1.7379835701930197, 1.7328511737430627, 1.71820521366533, 1.7116178179769668]}}, \"_estimator_type\": \"regressor\"}"},"feature_names":["Species_ID","Origin_ID","H_m","DBH_cm","BA_sq_m_ha"],"feature_types":["int","float","float","float","float"],"gradient_booster":{"model":{"gbtree_model_param":{"num_parallel_tree":"1","num_trees":"172","size_leaf_vector":"0"},"tree_info":[0,0,0,0,0,0,0,0,0,0,0,0,0,0,0,0,0,0,0,0,0,0,0,0,0,0,0,0,0,0,0,0,0,0,0,0,0,0,0,0,0,0,0,0,0,0,0,0,0,0,0,0,0,0,0,0,0,0,0,0,0,0,0,0,0,0,0,0,0,0,0,0,0,0,0,0,0,0,0,0,0,0,0,0,0,0,0,0,0,0,0,0,0,0,0,0,0,0,0,0,0,0,0,0,0,0,0,0,0,0,0,0,0,0,0,0,0,0,0,0,0,0,0,0,0,0,0,0,0,0,0,0,0,0,0,0,0,0,0,0,0,0,0,0,0,0,0,0,0,0,0,0,0,0,0,0,0,0,0,0,0,0,0,0,0,0,0,0,0,0,0,0],"trees":[{"base_weights":[1.3366769E1,1.1170716E1,3.1503117E1,8.391703E0,1.4896227E1,1.9853542E1,4.9092335E1,5.68558E0,9.958455E0,1.3587244E1,3.07755E1,1.11592E1,2.8082916E1,3.721E0,7.596232E0,1.0838639E1,7.5167694E0,1.2457857E1,1.8555779E1,1.8233334E1,3.3740665E1,4.755E0,1.3385555E1],"categories":[],"categories_nodes":[],"categories_segments":[],"categories_sizes":[],"default_left":[1,1,1,1,1,1,0,1,1,1,1,1,0,0,0,0,0,0,0,0,0,0,0],"id":0,"left_children":[1,3,5,7,9,11,-1,13,15,17,19,21,-1,-1,-1,-1,-1,-1,-1,-1,-1,-1,-1],"loss_changes":[2.824486E4,6.5217734E3,1.480318E4,1.5121152E3,5.2563438E3,3.1209688E3,0E0,4.8973486E2,4.192754E2,1.1941289E3,1.2858594E2,2.9280225E2,0E0,0E0,0E0,0E0,0E0,0E0,0E0,0E0,0E0,0E0,0E0],"parents":[2147483647,0,0,1,1,2,2,3,3,4,4,5,5,7,7,8,8,9,9,10,10,11,11],"right_children":[2,4,6,8,10,12,-1,14,16,18,20,22,-1,-1,-1,-1,-1,-1,-1,-1,-1,-1,-1],"split_conditions":[4.5E0,1.745E1,2.325E1,1.0200001E1,3.5E0,2.285E1,1.0006483E1,1.515E1,2.5E0,4.165E1,2.77E1,9.15E0,5.724137E0,7.5845087E-1,1.5483389E0,2.2092383E0,1.532142E0,2.5392833E0,3.7822216E0,3.7164977E0,6.877355E0,9.69211E-1,2.7283757E0],"split_indices":[0,2,2,2,0,4,0,4,0,4,4,4,0,0,0,0,0,0,0,0,0,0,0],"split_type":[0,0,0,0,0,0,0,0,0,0,0,0,0,0,0,0,0,0,0,0,0,0,0],"sum_hessian":[7.17E2,6.41E2,7.6E1,3.69E2,2.72E2,4.7E1,2.9E1,1.37E2,2.32E2,2.53E2,1.9E1,2.4E1,2.3E1,6.9E1,6.8E1,1.68E2,6.4E1,2.09E2,4.4E1,5E0,1.4E1,7E0,1.7E1],"tree_param":{"num_deleted":"0","num_feature":"5","num_nodes":"23","size_leaf_vector":"0"}},{"base_weights":[1.0600728E1,8.795671E0,2.5181181E1,5.6956162E0,1.1061491E1,1.4998325E1,3.8920967E1,3.903114E0,6.874105E0,1.0298107E1,2.3294172E1,8.195888E0,1.8937912E1,1.8551518E0,4.279546E0,1.6906946E1,6.5176153E0,9.575955E0,1.4995943E1,9.491905E0,2.4247469E1,2.7086313E0,9.47858E0],"categories":[],"categories_nodes":[],"categories_segments":[],"categories_sizes":[],"default_left":[1,0,0,1,1,1,0,1,0,1,1,1,0,0,0,0,0,0,0,0,0,0,0],"id":1,"left_children":[1,3,5,7,9,11,-1,13,15,17,19,21,-1,-1,-1,-1,-1,-1,-1,-1,-1,-1,-1],"loss_changes":[1.87805E4,4.4605625E3,1.0469164E4,5.519795E2,3.2245977E3,1.1043301E3,0E0,7.763269E1,4.7636963E2,1.0471836E3,4.615625E1,1.08056885E2,0E0,0E0,0E0,0E0,0E0,0E0,0E0,0E0,0E0,0E0,0E0],"parents":[2147483647,0,0,1,1,2,2,3,3,4,4,5,5,7,7,8,8,9,9,10,10,11,11],"right_children":[2,4,6,8,10,12,-1,14,16,18,20,22,-1,-1,-1,-1,-1,-1,-1,-1,-1,-1,-1],"split_conditions":[4.5E0,1.285E1,2.825E1,8.85E0,3.5E0,1.515E1,7.933255E0,4.6000004E0,5.95E0,2.605E1,1.705E1,8.35E0,3.860112E0,3.7813532E-1,8.722992E-1,3.4461403E0,1.3284845E0,1.9518656E0,3.0566208E0,1.9347336E0,4.942358E0,5.5209994E-1,1.9320177E0],"split_indices":[0,3,3,2,0,2,0,2,3,2,2,2,0,0,0,0,0,0,0,0,0,0,0],"split_type":[0,0,0,0,0,0,0,0,0,0,0,0,0,0,0,0,0,0,0,0,0,0,0],"sum_hessian":[7.21E2,6.43E2,7.8E1,2.73E2,3.7E2,4.6E1,3.2E1,1.1E2,1.63E2,3.5E2,2E1,1.8E1,2.8E1,1.8E1,9.2E1,4E0,1.59E2,3.06E2,4.4E1,2E0,1.8E1,4E0,1.4E1],"tree_param":{"num_deleted":"0","num_feature":"5","num_nodes":"23","size_leaf_vector":"0"}},{"base_weights":[8.7577505E0,7.224089E0,2.0881054E1,5.234284E0,9.8063545E0,1.277308E1,3.1172302E1,3.670659E0,6.507374E0,8.927709E0,2.1406286E1,8.210129E0,1.6460072E1,2.5005213E1,3.5607597E1,1.7175044E0,4.051744E0,6.1550946E0,9.557885E0,9.540059E0,5.8449354E0,1.4586105E1,2.7363588E1,4.601603E0,9.501258E0,1.7775398E1,5.1107535E0],"categories":[],"categories_nodes":[],"categories_segments":[],"categories_sizes":[],"default_left":[1,0,0,0,1,0,0,0,1,1,0,0,0,0,0,0,0,0,0,0,0,0,0,0,0,0,0],"id":2,"left_children":[1,3,5,7,9,11,13,15,17,19,21,23,25,-1,-1,-1,-1,-1,-1,-1,-1,-1,-1,-1,-1,-1,-1],"loss_changes":[1.3347707E4,3.2679531E3,6.3605703E3,7.0667676E2,2.662713E3,6.555679E2,6.697266E1,1.17342285E2,1.571709E2,4.3882422E2,3.7283984E2,6.3437622E1,2.8235596E2,0E0,0E0,0E0,0E0,0E0,0E0,0E0,0E0,0E0,0E0,0E0,0E0,0E0,0E0],"parents":[2147483647,0,0,1,1,2,2,3,3,4,4,5,5,6,6,7,7,8,8,9,9,10,10,11,11,12,12],"right_children":[2,4,6,8,10,12,14,16,18,20,22,24,26,-1,-1,-1,-1,-1,-1,-1,-1,-1,-1,-1,-1,-1,-1],"split_conditions":[4.5E0,1.6349998E1,2.825E1,9.700001E0,3.5E0,1.825E1,4.0199997E1,3.85E0,3.5E0,2.5E0,2.22E1,1E1,2.64E1,5.096809E0,7.257891E0,3.5007867E-1,8.258664E-1,1.2545921E0,1.9481823E0,1.9445488E0,1.1913724E0,2.9730837E0,5.577516E0,9.3794405E-1,1.93664E0,3.6231568E0,1.0417242E0],"split_indices":[0,3,3,3,0,3,3,3,0,0,3,3,3,0,0,0,0,0,0,0,0,0,0,0,0,0,0],"split_type":[0,0,0,0,0,0,0,0,0,0,0,0,0,0,0,0,0,0,0,0,0,0,0,0,0,0,0],"sum_hessian":[7.25E2,6.45E2,8E1,3.66E2,2.79E2,4.6E1,3.4E1,1.66E2,2E2,2.61E2,1.8E1,2.2E1,2.4E1,1.7E1,1.7E1,2.8E1,1.38E2,1.82E2,1.8E1,2.16E2,4.5E1,1E1,8E0,7E0,1.5E1,2.1E1,3E0],"tree_param":{"num_deleted":"0","num_feature":"5","num_nodes":"27","size_leaf_vector":"0"}},{"base_weights":[6.741601E0,5.0736756E0,1.3068133E1,1.6927795E0,5.8823047E0,4.985386E0,1.5305272E1,8.4239304E-1,2.442408E0,4.073966E0,6.3769536E0,5.817426E0,-2.7092733E0,1.2399562E1,2.4531733E1,6.482052E-1,5.5671735E0,3.426673E0,1.3767297E0,4.9454627E0,2.948907E0,6.1143966E0,8.801328E0,8.081673E-1,7.8299336E0,1.4010478E1,9.669832E0,6.7397738E0,2.4956818E1],"categories":[],"categories_nodes":[],"categories_segments":[],"categories_sizes":[],"default_left":[0,1,1,1,0,1,0,0,1,1,1,1,0,0,1,0,0,0,0,0,0,0,0,0,0,0,0,0,0],"id":3,"left_children":[1,3,5,7,9,11,13,15,17,19,21,23,-1,25,27,-1,-1,-1,-1,-1,-1,-1,-1,-1,-1,-1,-1,-1,-1],"loss_changes":[7.552375E3,1.5565625E3,2.6360332E3,6.93396E1,3.8727637E2,2.3343799E2,2.8325195E3,4.5936047E1,5.716809E1,8.542578E1,1.7597461E2,3.0618848E2,0E0,2.6468164E2,3.5999023E1,0E0,0E0,0E0,0E0,0E0,0E0,0E0,0E0,0E0,0E0,0E0,0E0,0E0,0E0],"parents":[2147483647,0,0,1,1,2,2,3,3,4,4,5,5,6,6,7,7,8,8,9,9,10,10,11,11,13,13,14,14],"right_children":[2,4,6,8,10,12,14,16,18,20,22,24,-1,26,28,-1,-1,-1,-1,-1,-1,-1,-1,-1,-1,-1,-1,-1,-1],"split_conditions":[2.425E1,1.525E1,2.795E1,1.005E1,1.015E1,2.755E1,3.765E1,2.065E1,1.325E1,2.105E1,4.065E1,2.02E1,-5.522308E-1,5E-1,3.005E1,1.3212357E-1,1.1347562E0,6.9845825E-1,2.806186E-1,1.0080329E0,6.010753E-1,1.2462965E0,1.7939733E0,1.6472861E-1,1.5959742E0,2.8557537E0,1.9710006E0,1.3737671E0,5.0869446E0],"split_indices":[3,4,4,4,3,4,3,3,4,4,4,4,0,1,4,0,0,0,0,0,0,0,0,0,0,0,0,0,0],"split_type":[0,0,0,0,0,0,0,0,0,0,0,0,0,0,0,0,0,0,0,0,0,0,0,0,0,0,0,0,0],"sum_hessian":[7.21E2,5.72E2,1.49E2,1.11E2,4.61E2,3.3E1,1.16E2,5.3E1,5.8E1,1.01E2,3.6E2,3E1,3E0,9E1,2.6E1,5.2E1,1E0,2.9E1,2.9E1,5.5E1,4.6E1,3.28E2,3.2E1,9E0,2.1E1,5.4E1,3.6E1,1E0,2.5E1],"tree_param":{"num_deleted":"0","num_feature":"5","num_nodes":"29","size_leaf_vector":"0"}},{"base_weights":[5.4766912E0,4.4702477E0,1.3487001E1,3.205096E0,5.859806E0,9.015713E0,2.1234797E1,1.7190511E0,3.8565586E0,5.175239E0,1.3096951E1,4.87977E0,1.14267435E1,2.1587458E1,5.5038204E0,1.0591503E0,2.3596945E0,4.2272477E0,2.610015E0,5.838324E0,2.4919038E0,3.336552E0,1.46493435E1,1.4108975E0,5.572247E0,1.2163696E1,4.7196765E0],"categories":[],"categories_nodes":[],"categories_segments":[],"categories_sizes":[],"default_left":[1,1,1,1,1,1,1,1,1,1,1,1,1,0,0,0,0,0,0,0,0,0,0,0,0,0,0],"id":4,"left_children":[1,3,5,7,9,11,13,15,17,19,21,23,25,-1,-1,-1,-1,-1,-1,-1,-1,-1,-1,-1,-1,-1,-1],"loss_changes":[6.042584E3,1.1661123E3,2.7185332E3,3.3704663E2,1.5175996E3,4.9269385E2,4.7617188E1,4.4004456E1,1.0263843E2,5.0855908E2,3.602251E2,4.498474E1,1.10646484E2,0E0,0E0,0E0,0E0,0E0,0E0,0E0,0E0,0E0,0E0,0E0,0E0,0E0,0E0],"parents":[2147483647,0,0,1,1,2,2,3,3,4,4,5,5,6,6,7,7,8,8,9,9,10,10,11,11,12,12],"right_children":[2,4,6,8,10,12,14,16,18,20,22,24,26,-1,-1,-1,-1,-1,-1,-1,-1,-1,-1,-1,-1,-1,-1],"split_conditions":[4.5E0,1.605E1,2.325E1,8.75E0,3.5E0,1.5299999E1,3.365E1,6.6499996E0,2.5E0,2.5E0,1.715E1,8.35E0,2.23E1,4.4001684E0,1.1218429E0,2.1588646E-1,4.809762E-1,8.6163926E-1,5.3199893E-1,1.1900247E0,5.079244E-1,6.800889E-1,2.9859736E0,2.8758302E-1,1.1357903E0,2.4793243E0,9.62011E-1],"split_indices":[0,2,2,2,0,2,2,2,0,0,2,2,2,0,0,0,0,0,0,0,0,0,0,0,0,0,0],"split_type":[0,0,0,0,0,0,0,0,0,0,0,0,0,0,0,0,0,0,0,0,0,0,0,0,0,0,0],"sum_hessian":[7.56E2,6.73E2,8.3E1,3.54E2,3.19E2,5.4E1,2.9E1,1.09E2,2.45E2,2.93E2,2.6E1,2.1E1,3.3E1,2.8E1,1E0,5.5E1,5.4E1,1.87E2,5.8E1,2.34E2,5.9E1,4E0,2.2E1,4E0,1.7E1,2.9E1,4E0],"tree_param":{"num_deleted":"0","num_feature":"5","num_nodes":"27","size_leaf_vector":"0"}},{"base_weights":[4.29633E0,3.418515E0,1.1486699E1,2.528962E0,4.569455E0,7.412165E0,1.8643452E1,1.454752E0,2.937909E0,4.154805E0,1.0813112E1,4.9131145E0,1.0867282E1,1.4191673E1,2.208154E1,9.1154015E-1,2.0013928E0,1.0117689E1,2.7340913E0,4.611948E0,2.1760042E0,5.134112E0,1.275152E1,1.7392126E0,5.898615E0,1.1319244E1,9.140167E-1],"categories":[],"categories_nodes":[],"categories_segments":[],"categories_sizes":[],"default_left":[1,0,0,1,1,0,0,0,0,1,0,1,0,0,0,0,0,0,0,0,0,0,0,0,0,0,0],"id":5,"left_children":[1,3,5,7,9,11,13,15,17,19,21,23,25,-1,-1,-1,-1,-1,-1,-1,-1,-1,-1,-1,-1,-1,-1],"loss_changes":[4.5683574E3,6.5597705E2,2.1654854E3,1.5826514E2,6.877417E2,3.9560254E2,1.1518359E2,2.9057602E1,3.630559E2,2.3149121E2,1.21671875E2,8.983325E1,8.412256E1,0E0,0E0,0E0,0E0,0E0,0E0,0E0,0E0,0E0,0E0,0E0,0E0,0E0,0E0],"parents":[2147483647,0,0,1,1,2,2,3,3,4,4,5,5,6,6,7,7,8,8,9,9,10,10,11,11,12,12],"right_children":[2,4,6,8,10,12,14,16,18,20,22,24,26,-1,-1,-1,-1,-1,-1,-1,-1,-1,-1,-1,-1,-1,-1],"split_conditions":[4.5E0,1.6349998E1,3.06E1,8.75E0,3.5E0,2.02E1,4.325E1,5.95E0,5.95E0,2.5E0,1.845E1,1.07E1,2.995E1,2.8926866E0,4.500877E0,1.8579909E-1,4.079436E-1,2.062287E0,5.572894E-1,9.400527E-1,4.435346E-1,1.0464853E0,2.5991404E0,3.5450345E-1,1.2023138E0,2.3072E0,1.863039E-1],"split_indices":[0,3,3,2,0,3,3,3,3,0,3,2,3,0,0,0,0,0,0,0,0,0,0,0,0,0,0],"split_type":[0,0,0,0,0,0,0,0,0,0,0,0,0,0,0,0,0,0,0,0,0,0,0,0,0,0,0],"sum_hessian":[7.29E2,6.51E2,7.8E1,3.69E2,2.82E2,5.1E1,2.7E1,1.03E2,2.66E2,2.66E2,1.6E1,3.1E1,2E1,1.4E1,1.3E1,5.3E1,5E1,6E0,2.6E2,2.15E2,5.1E1,5E0,1.1E1,8E0,2.3E1,1.9E1,1E0],"tree_param":{"num_deleted":"0","num_feature":"5","num_nodes":"27","size_leaf_vector":"0"}},{"base_weights":[3.5828629E0,2.8990903E0,9.110824E0,1.5202826E0,4.062669E0,2.764787E0,1.24747505E1,-1.4118323E-1,1.9625338E0,3.7781377E0,8.381055E0,-1.7505205E0,3.1640882E0,8.670856E0,1.3520386E1,1.2187651E0,-3.0288073E-1,2.0384247E1,1.7190119E0,3.5693083E0,8.281514E0,4.55243E0,1.0873155E1,3.5729313E0,-1.2976328E0,9.208798E0,3.6288025E0],"categories":[],"categories_nodes":[],"categories_segments":[],"categories_sizes":[],"default_left":[1,1,1,1,1,1,1,1,1,1,1,0,0,1,0,0,0,0,0,0,0,0,0,0,0,0,0],"id":6,"left_children":[1,3,5,7,9,11,13,15,17,19,21,-1,23,25,-1,-1,-1,-1,-1,-1,-1,-1,-1,-1,-1,-1,-1],"loss_changes":[2.73667E3,1.0398604E3,1.6733184E3,2.2071265E2,4.0207178E2,5.7824875E1,8.959619E1,1.4442758E1,1.0281633E3,2.8360645E2,1.5086829E2,0E0,5.3888214E1,4.555664E0,0E0,0E0,0E0,0E0,0E0,0E0,0E0,0E0,0E0,0E0,0E0,0E0,0E0],"parents":[2147483647,0,0,1,1,2,2,3,3,4,4,5,5,6,6,7,7,8,8,9,9,10,10,12,12,13,13],"right_children":[2,4,6,8,10,12,14,16,18,20,22,-1,24,26,-1,-1,-1,-1,-1,-1,-1,-1,-1,-1,-1,-1,-1],"split_conditions":[4.5E0,2.4849998E1,2.335E1,1.225E1,3.5E0,6.2E0,3.08E1,4.1E0,1.235E1,4.615E1,3.04E1,-3.5680833E-1,5E-1,2.97E1,2.7558582E0,2.4842072E-1,-6.1736137E-2,4.154918E0,3.5038593E-1,7.275316E-1,1.6880199E0,9.279212E-1,2.2162735E0,7.2827005E-1,-2.644963E-1,1.877028E0,7.396583E-1],"split_indices":[0,4,4,4,0,4,4,4,4,4,4,0,1,4,0,0,0,0,0,0,0,0,0,0,0,0,0],"split_type":[0,0,0,0,0,0,0,0,0,0,0,0,0,0,0,0,0,0,0,0,0,0,0,0,0,0,0],"sum_hessian":[7.3E2,6.51E2,7.9E1,2.99E2,3.52E2,2.8E1,5.1E1,6.3E1,2.36E2,3.32E2,2E1,2E0,2.6E1,1.3E1,3.8E1,6E0,5.7E1,2E0,2.34E2,3.19E2,1.3E1,9E0,1.1E1,2.4E1,2E0,1.1E1,2E0],"tree_param":{"num_deleted":"0","num_feature":"5","num_nodes":"27","size_leaf_vector":"0"}},{"base_weights":[2.7922466E0,1.6750478E0,4.962364E0,1.2603022E0,3.4888132E0,3.618858E0,1.12312355E1,1.7472342E0,-1.1149961E0,1.2022405E0,5.105559E0,3.3581295E0,1.3584961E1,8.684328E0,1.3179092E1,1.0062802E0,3.288432E0,-9.881281E-1,-4.8710103E0,2.3645177E0,-2.851117E-1,1.2742144E0,5.6608896E0,2.7412431E0,5.2156525E0,6.074654E0,2.1813093E1,1.0676594E0,1.3681083E1],"categories":[],"categories_nodes":[],"categories_segments":[],"categories_sizes":[],"default_left":[1,1,1,1,1,1,1,1,1,1,1,1,1,0,1,0,0,0,0,0,0,0,0,0,0,0,0,0,0],"id":7,"left_children":[1,3,5,7,9,11,13,15,17,19,21,23,25,-1,27,-1,-1,-1,-1,-1,-1,-1,-1,-1,-1,-1,-1,-1,-1],"loss_changes":[1.7930562E3,3.657107E2,2.081767E3,4.6690485E2,3.3027124E2,4.9745557E2,1.0383301E2,3.7810443E2,2.8066559E1,6.8094055E1,1.0555286E2,2.206084E2,1.7647205E2,0E0,1.2522876E2,0E0,0E0,0E0,0E0,0E0,0E0,0E0,0E0,0E0,0E0,0E0,0E0,0E0,0E0],"parents":[2147483647,0,0,1,1,2,2,3,3,4,4,5,5,6,6,7,7,8,8,9,9,10,10,11,11,12,12,14,14],"right_children":[2,4,6,8,10,12,14,16,18,20,22,24,26,-1,28,-1,-1,-1,-1,-1,-1,-1,-1,-1,-1,-1,-1,-1,-1],"split_conditions":[3.155E1,3.5E0,3.5E0,2.5E0,1.885E1,3.2800003E1,3.6550003E1,5E-1,2.6150002E1,1.3700001E1,1.12E1,4.165E1,5E-1,1.7701254E0,1.7E1,2.0510994E-1,6.702806E-1,-2.0141001E-1,-9.9285734E-1,4.8195928E-1,-5.8114275E-2,2.5972295E-1,1.1538583E0,5.587472E-1,1.0631057E0,1.2381959E0,4.44616E0,2.1762085E-1,2.788613E0],"split_indices":[4,0,0,0,4,2,4,0,2,2,2,4,0,0,2,0,0,0,0,0,0,0,0,0,0,0,0,0,0],"split_type":[0,0,0,0,0,0,0,0,0,0,0,0,0,0,0,0,0,0,0,0,0,0,0,0,0,0,0,0,0],"sum_hessian":[7.42E2,4.91E2,2.51E2,4.01E2,9E1,2.08E2,4.3E1,3.33E2,6.8E1,3.8E1,5.2E1,2.04E2,4E0,2.1E1,2.2E1,2.26E2,1.07E2,6.7E1,1E0,2.1E1,1.7E1,7E0,4.5E1,1.55E2,4.9E1,3E0,1E0,1E0,2.1E1],"tree_param":{"num_deleted":"0","num_feature":"5","num_nodes":"29","size_leaf_vector":"0"}},{"base_weights":[2.1952734E0,1.4343214E0,4.5132155E0,1.397128E-1,1.8289485E0,7.97491E-1,6.064991E0,4.0075954E-2,4.244677E0,2.0261652E0,-2.3673477E0,2.890785E-1,2.7124226E0,4.925702E0,1.0169785E1,-5.605146E-1,7.2142327E-1,1.8332447E0,3.6039689E0,-2.8843672E0,-3.428196E-1,1.2824719E0,-2.3840604E0,1.0726868E1,8.382912E-1,1.4331602E1,4.5840173E0,8.602032E0,1.6641918E1],"categories":[],"categories_nodes":[],"categories_segments":[],"categories_sizes":[],"default_left":[0,1,1,0,0,0,0,1,0,1,0,0,0,1,0,0,0,0,0,0,0,0,0,0,0,0,0,0,0],"id":8,"left_children":[1,3,5,7,9,11,13,15,-1,17,19,21,23,25,27,-1,-1,-1,-1,-1,-1,-1,-1,-1,-1,-1,-1,-1,-1],"loss_changes":[1.2529102E3,2.751129E2,1.0099739E3,5.177361E1,3.4658728E2,5.081538E1,5.297988E2,5.1555714E1,0E0,1.1362732E2,1.8898872E1,1.17243065E2,1.5622911E2,2.5247485E2,1.2066016E2,0E0,0E0,0E0,0E0,0E0,0E0,0E0,0E0,0E0,0E0,0E0,0E0,0E0,0E0],"parents":[2147483647,0,0,1,1,2,2,3,3,4,4,5,5,6,6,7,7,9,9,10,10,11,11,12,12,13,13,14,14],"right_children":[2,4,6,8,10,12,14,16,-1,18,20,22,24,26,28,-1,-1,-1,-1,-1,-1,-1,-1,-1,-1,-1,-1,-1,-1],"split_conditions":[2.2150002E1,1.6150002E1,3.075E1,2.065E1,2.095E1,3.385E1,3.545E1,1.175E1,8.6519194E-1,3.89E1,2.195E1,3.005E1,3.45E1,3.0849998E1,5.485E1,-1.1424962E-1,1.470476E-1,3.7367E-1,7.3459643E-1,-5.879201E-1,-6.987687E-2,2.6140606E-1,-4.859427E-1,2.186456E0,1.7086878E-1,2.9212084E0,9.3435955E-1,1.7533509E0,3.39212E0],"split_indices":[3,4,4,3,3,3,3,4,0,4,3,3,3,4,3,0,0,0,0,0,0,0,0,0,0,0,0,0,0],"split_type":[0,0,0,0,0,0,0,0,0,0,0,0,0,0,0,0,0,0,0,0,0,0,0,0,0,0,0,0,0],"sum_hessian":[7.13E2,5.38E2,1.75E2,1.26E2,4.12E2,5.2E1,1.23E2,1.24E2,2E0,3.94E2,1.8E1,4.2E1,1E1,9.8E1,2.5E1,6.6E1,5.8E1,3.53E2,4.1E1,1.4E1,4E0,3.1E1,1.1E1,1E0,9E0,2E0,9.6E1,2.2E1,3E0],"tree_param":{"num_deleted":"0","num_feature":"5","num_nodes":"29","size_leaf_vector":"0"}},{"base_weights":[1.8582674E0,1.1430509E0,4.771525E0,8.6875486E-1,3.8592691E0,2.3630676E0,8.119641E0,3.8494626E-1,1.870701E0,1.0262741E1,3.4069226E0,9.2355657E-1,3.42346E0,7.121893E0,1.1433996E1,6.564179E-1,-5.224166E-1,-1.1079073E0,2.0810897E0,2.3956184E0,5.469424E0,-1.6244326E0,1.1961565E0,3.5035758E0,-1.7098713E-1,4.977739E0,7.624811E0],"categories":[],"categories_nodes":[],"categories_segments":[],"categories_sizes":[],"default_left":[1,1,1,1,1,1,1,1,1,0,1,1,1,1,0,0,0,0,0,0,0,0,0,0,0,0,0],"id":9,"left_children":[1,3,5,7,9,11,13,15,17,-1,19,21,23,25,-1,-1,-1,-1,-1,-1,-1,-1,-1,-1,-1,-1,-1],"loss_changes":[1.4989121E3,4.2952014E2,1.1258716E3,2.557127E2,1.1855487E2,1.2505975E2,1.1367505E2,8.852664E1,1.1009216E2,0E0,9.327399E1,2.76426E1,1.4421692E1,1.3805664E1,0E0,0E0,0E0,0E0,0E0,0E0,0E0,0E0,0E0,0E0,0E0,0E0,0E0],"parents":[2147483647,0,0,1,1,2,2,3,3,4,4,5,5,6,6,7,7,8,8,10,10,11,11,12,12,13,13],"right_children":[2,4,6,8,10,12,14,16,18,-1,20,22,24,26,-1,-1,-1,-1,-1,-1,-1,-1,-1,-1,-1,-1,-1],"split_conditions":[3.5E0,4.165E1,2.82E1,5E-1,4.2E1,1.795E1,3.96E1,2.5E0,1.16E1,2.0918531E0,4.635E1,6.15E0,2.805E1,4.5E0,2.3305898E0,1.3379757E-1,-1.064841E-1,-2.2582458E-1,4.2418823E-1,4.8829857E-1,1.1148318E0,-3.3110785E-1,2.4381241E-1,7.141333E-1,-3.485228E-2,1.0146118E0,1.5541642E0],"split_indices":[0,4,4,1,4,4,4,0,4,0,4,4,4,0,0,0,0,0,0,0,0,0,0,0,0,0,0],"split_type":[0,0,0,0,0,0,0,0,0,0,0,0,0,0,0,0,0,0,0,0,0,0,0,0,0,0,0],"sum_hessian":[7.21E2,5.8E2,1.41E2,5.28E2,5.2E1,8.3E1,5.8E1,3.57E2,1.71E2,2E0,5E1,3.6E1,4.7E1,4.7E1,1.1E1,2.75E2,8.2E1,1.1E1,1.6E2,3.5E1,1.5E1,3E0,3.3E1,4.6E1,1E0,1.1E1,3.6E1],"tree_param":{"num_deleted":"0","num_feature":"5","num_nodes":"27","size_leaf_vector":"0"}},{"base_weights":[1.5297357E0,1.2036955E0,4.602584E0,-1.4482289E-2,1.5781744E0,1.9948213E-1,5.6211705E0,1.5914723E-1,-2.848822E0,1.678534E0,-3.044985E0,3.5447695E0,-6.5346324E-1,1.5667614E1,4.102245E0,-9.234789E-2,9.977148E-1,-3.584951E0,-1.0324234E0,1.5488E0,7.198856E0,-4.7662926E0,-8.161804E-1,4.046669E-1,4.9124875E0,-5.0105658E0,7.190138E-1,2.3877384E1,3.5409415E0,7.567718E-1,4.6292577E0],"categories":[],"categories_nodes":[],"categories_segments":[],"categories_sizes":[],"default_left":[1,1,1,1,1,1,1,1,1,1,1,1,1,0,1,0,0,0,0,0,0,0,0,0,0,0,0,0,0,0,0],"id":10,"left_children":[1,3,5,7,9,11,13,15,17,19,21,23,25,27,29,-1,-1,-1,-1,-1,-1,-1,-1,-1,-1,-1,-1,-1,-1,-1,-1],"loss_changes":[7.1881323E2,2.9882184E2,3.083396E2,7.6732765E1,2.3756445E2,4.2263245E1,7.902765E2,3.1093798E1,8.332748E0,3.404917E2,3.8310875E1,1.0896404E1,7.5362946E1,6.123519E2,8.465204E1,0E0,0E0,0E0,0E0,0E0,0E0,0E0,0E0,0E0,0E0,0E0,0E0,0E0,0E0,0E0,0E0],"parents":[2147483647,0,0,1,1,2,2,3,3,4,4,5,5,6,6,7,7,8,8,9,9,10,10,11,11,12,12,13,13,14,14],"right_children":[2,4,6,8,10,12,14,16,18,20,22,24,26,28,30,-1,-1,-1,-1,-1,-1,-1,-1,-1,-1,-1,-1,-1,-1,-1,-1],"split_conditions":[2.5650002E1,1.775E1,3.01E1,1.78E1,2.5349998E1,2.685E1,3.48E1,1.525E1,2.14E1,2.4849998E1,3.33E1,2.61E1,2.83E1,5E-1,3.675E1,-1.8823257E-2,2.0336406E-1,-7.3072004E-1,-2.1043871E-1,3.1569168E-1,1.4673418E0,-9.7151273E-1,-1.6636193E-1,8.2483195E-2,1.0013117E0,-1.0213029E0,1.4655648E-1,4.866924E0,7.217496E-1,1.542527E-1,9.435809E-1],"split_indices":[2,4,4,2,2,2,4,4,2,2,4,2,2,1,4,0,0,0,0,0,0,0,0,0,0,0,0,0,0,0,0],"split_type":[0,0,0,0,0,0,0,0,0,0,0,0,0,0,0,0,0,0,0,0,0,0,0,0,0,0,0,0,0,0,0],"sum_hessian":[7.22E2,6.54E2,6.8E1,1.54E2,5E2,1.3E1,5.5E1,1.46E2,8E0,4.9E2,1E1,2E0,1.1E1,6E0,4.9E1,1.13E2,3.3E1,5E0,3E0,4.8E2,1E1,5E0,5E0,1E0,1E0,2E0,9E0,3E0,3E0,7E0,4.2E1],"tree_param":{"num_deleted":"0","num_feature":"5","num_nodes":"31","size_leaf_vector":"0"}},{"base_weights":[1.2577733E0,8.190499E-1,2.693472E0,9.7435E-1,-2.3345432E0,1.0352538E1,2.4509344E0,9.373025E-1,1.0527051E1,-4.0827546E0,5.7946944E-1,4.3618064E0,1.2892425E1,1.5094458E0,3.6983645E0,1.8254994E-1,1.3089778E0,-2.7419252E0,-5.6065216E0,2.2813942E0,-2.9692476E0,2.9263546E0,-1.012074E0,9.158654E0,2.4536624E0],"categories":[],"categories_nodes":[],"categories_segments":[],"categories_sizes":[],"default_left":[0,1,1,1,0,1,1,0,0,1,0,0,0,1,0,0,0,0,0,0,0,0,0,0,0],"id":11,"left_children":[1,3,5,7,9,11,13,15,-1,17,19,-1,-1,21,23,-1,-1,-1,-1,-1,-1,-1,-1,-1,-1],"loss_changes":[4.6453088E2,2.809443E2,2.9599304E2,1.8230273E2,1.3991222E2,1.9844604E1,1.9289807E2,1.5180447E2,0E0,1.9360199E1,7.321017E1,0E0,0E0,3.5309256E2,4.6687097E2,0E0,0E0,0E0,0E0,0E0,0E0,0E0,0E0,0E0,0E0],"parents":[2147483647,0,0,1,1,2,2,3,3,4,4,5,5,6,6,7,7,9,9,10,10,13,13,14,14],"right_children":[2,4,6,8,10,12,14,16,-1,18,20,-1,-1,22,24,-1,-1,-1,-1,-1,-1,-1,-1,-1,-1],"split_conditions":[2.2849998E1,2.175E1,2.31E1,2.1650002E1,2.195E1,2.12E1,2.5650002E1,9.700001E0,2.1457272E0,2.275E1,2.2599998E1,8.8906634E-1,2.627861E0,2.355E1,2.83E1,3.7209127E-2,2.6680878E-1,-5.5888623E-1,-1.1427765E0,4.6501625E-1,-6.0522133E-1,5.9647846E-1,-2.062909E-1,1.8668071E0,5.0012964E-1],"split_indices":[3,2,3,2,3,2,2,3,0,2,3,0,0,2,3,0,0,0,0,0,0,0,0,0,0],"split_type":[0,0,0,0,0,0,0,0,0,0,0,0,0,0,0,0,0,0,0,0,0,0,0,0,0],"sum_hessian":[7.4E2,5.68E2,1.72E2,5.42E2,2.6E1,4E0,1.68E2,5.41E2,1E0,1.6E1,1E1,2E0,2E0,9.7E1,7.1E1,1.79E2,3.62E2,1E1,6E0,7E0,3E0,6.2E1,3.5E1,1.2E1,5.9E1],"tree_param":{"num_deleted":"0","num_feature":"5","num_nodes":"25","size_leaf_vector":"0"}},{"base_weights":[8.9054537E-1,3.9147538E-1,3.051574E0,6.230315E-1,-6.8631244E-1,2.156405E0,6.129542E0,3.1011856E-1,1.6589053E0,-2.0034827E-1,-1.5409582E0,-2.330768E-1,2.451373E0,7.6487184E0,4.767498E0,6.2423944E-1,-2.0484151E-1,1.7964144E1,7.625959E-1,-7.942495E-1,7.679217E0,-3.1846633E0,-1.0140451E0,8.8037126E-2,-2.043222E0,1.9358371E0,3.1816494E0,7.734966E-1,8.157196E0,9.885724E-1,6.046502E0],"categories":[],"categories_nodes":[],"categories_segments":[],"categories_sizes":[],"default_left":[1,1,1,1,1,0,0,1,1,0,0,1,0,0,1,0,0,0,0,0,0,0,0,0,0,0,0,0,0,0,0],"id":12,"left_children":[1,3,5,7,9,11,13,15,17,19,21,23,25,27,29,-1,-1,-1,-1,-1,-1,-1,-1,-1,-1,-1,-1,-1,-1,-1,-1],"loss_changes":[8.0444836E2,1.5216516E2,3.725244E2,1.6187885E2,4.454661E1,7.810162E1,2.7679443E1,6.2567123E1,1.681587E3,3.3367703E2,3.0548103E1,7.7362957E0,3.0736267E1,3.9137085E1,8.585458E1,0E0,0E0,0E0,0E0,0E0,0E0,0E0,0E0,0E0,0E0,0E0,0E0,0E0,0E0,0E0,0E0],"parents":[2147483647,0,0,1,1,2,2,3,3,4,4,5,5,6,6,7,7,8,8,9,9,10,10,11,11,12,12,13,13,14,14],"right_children":[2,4,6,8,10,12,14,16,18,20,22,24,26,28,30,-1,-1,-1,-1,-1,-1,-1,-1,-1,-1,-1,-1,-1,-1,-1,-1],"split_conditions":[3.5E0,2.5E0,2.49E1,5E-1,1.995E1,5.85E0,3.755E1,1.805E1,1.5E0,1.895E1,1.945E1,8.9E0,1.8650002E1,2.505E1,2.8099998E1,1.2723863E-1,-4.1752815E-2,3.6616287E0,1.5543981E-1,-1.6189176E-1,1.5652536E0,-6.4912945E-1,-2.0669267E-1,1.7944595E-2,-4.1646963E-1,3.945814E-1,6.4851516E-1,1.576617E-1,1.66268E0,2.0150058E-1,1.2324576E0],"split_indices":[0,0,2,0,2,3,3,2,0,3,3,2,3,3,2,0,0,0,0,0,0,0,0,0,0,0,0,0,0,0,0],"split_type":[0,0,0,0,0,0,0,0,0,0,0,0,0,0,0,0,0,0,0,0,0,0,0,0,0,0,0,0,0,0,0],"sum_hessian":[7.46E2,6.07E2,1.39E2,5E2,1.07E2,1.09E2,3E1,3.85E2,1.15E2,6.9E1,3.8E1,1.2E1,9.7E1,1.2E1,1.8E1,2.39E2,1.46E2,5E0,1.1E2,6.5E1,4E0,8E0,3E1,1.1E1,1E0,5.9E1,3.8E1,1E0,1.1E1,5E0,1.3E1],"tree_param":{"num_deleted":"0","num_feature":"5","num_nodes":"31","size_leaf_vector":"0"}},{"base_weights":[8.6483103E-1,4.7016233E-1,2.0148466E0,5.661074E-1,-2.2410443E0,1.8627825E0,1.0771206E1,5.3185725E-1,9.376468E0,-2.5809772E0,-3.2105207E-1,2.632624E0,9.564962E-1,-1.2351694E-2,8.01697E-1,-1.5167342E0,-3.732613E0,-8.878358E-1,6.896496E-1,1.805846E0,7.582413E0,-3.8161306E0,1.4218026E0],"categories":[],"categories_nodes":[],"categories_segments":[],"categories_sizes":[],"default_left":[0,1,0,1,0,0,0,0,0,1,0,1,1,0,0,0,0,0,0,0,0,0,0],"id":13,"left_children":[1,3,5,7,9,11,-1,13,-1,15,17,19,21,-1,-1,-1,-1,-1,-1,-1,-1,-1,-1],"loss_changes":[3.3355865E2,1.4433844E2,2.3026288E2,1.5554732E2,1.1572067E1,1.2725342E2,0E0,7.798683E1,0E0,1.3948547E1,2.9036927E0,3.9554492E2,1.9862967E2,0E0,0E0,0E0,0E0,0E0,0E0,0E0,0E0,0E0,0E0],"parents":[2147483647,0,0,1,1,2,2,3,3,4,4,5,5,7,7,9,9,10,10,11,11,12,12],"right_children":[2,4,6,8,10,12,-1,14,-1,16,18,20,22,-1,-1,-1,-1,-1,-1,-1,-1,-1,-1],"split_conditions":[2.2150002E1,2.175E1,7.465E1,2.1650002E1,2.195E1,2.855E1,2.1954932E0,9.700001E0,1.9112041E0,2.275E1,5E-1,2.56E1,2.325E1,-2.5176439E-3,1.6340978E-1,-3.0915573E-1,-7.60818E-1,-1.8096744E-1,1.4057118E-1,3.6808532E-1,1.5455222E0,-7.778413E-1,2.8980583E-1],"split_indices":[3,2,3,2,3,3,0,3,0,2,1,2,2,0,0,0,0,0,0,0,0,0,0],"split_type":[0,0,0,0,0,0,0,0,0,0,0,0,0,0,0,0,0,0,0,0,0,0,0],"sum_hessian":[7.36E2,5.49E2,1.87E2,5.31E2,1.8E1,1.85E2,2E0,5.3E2,1E0,1.5E1,3E0,9.9E1,8.6E1,1.76E2,3.54E2,9E0,6E0,2E0,1E0,8.6E1,1.3E1,7E0,7.9E1],"tree_param":{"num_deleted":"0","num_feature":"5","num_nodes":"23","size_leaf_vector":"0"}},{"base_weights":[6.4494324E-1,-1.277676E-2,1.1747147E0,1.02727145E-1,-2.4298067E0,9.871598E-1,3.4116797E0,-5.98624E-1,5.514952E-1,-4.0325403E0,-1.2251859E0,3.9926286E0,8.4249276E-1,6.554245E0,2.7033646E0,-6.828929E-1,2.9997635E0,1.0129639E0,-5.873033E-1,1.8892361E0,-2.239946E0,1.7817867E0,1.0732418E1,7.4679875E-1,3.810712E0,2.9425037E0,7.981238E0,1.7023221E0,4.0046697E0],"categories":[],"categories_nodes":[],"categories_segments":[],"categories_sizes":[],"default_left":[1,0,0,1,1,1,1,0,1,0,0,0,1,0,1,0,0,0,0,0,0,0,0,0,0,0,0,0,0],"id":14,"left_children":[1,3,5,7,9,11,13,15,17,-1,19,21,23,25,27,-1,-1,-1,-1,-1,-1,-1,-1,-1,-1,-1,-1,-1,-1],"loss_changes":[2.5542242E2,9.181947E1,1.6697089E2,9.915975E1,2.4019684E1,1.6011813E2,5.1285217E1,3.934608E1,1.0149475E2,0E0,3.5835693E1,2.3418747E2,9.9408875E1,2.2848358E0,2.835463E1,0E0,0E0,0E0,0E0,0E0,0E0,0E0,0E0,0E0,0E0,0E0,0E0,0E0,0E0],"parents":[2147483647,0,0,1,1,2,2,3,3,4,4,5,5,6,6,7,7,8,8,10,10,11,11,12,12,13,13,14,14],"right_children":[2,4,6,8,10,12,14,16,18,-1,20,22,24,26,28,-1,-1,-1,-1,-1,-1,-1,-1,-1,-1,-1,-1,-1,-1],"split_conditions":[2.48E1,2.57E1,3.545E1,1.5299999E1,1.895E1,2.5650002E1,3.69E1,2.065E1,2.2349998E1,-8.219521E-1,3.3550003E1,5E-1,4.79E1,3.625E1,3.8800003E1,-1.3919397E-1,6.114414E-1,2.0647228E-1,-1.1970994E-1,3.8508272E-1,-4.5656785E-1,3.6318132E-1,2.1875873E0,1.5221988E-1,7.767369E-1,5.997701E-1,1.6268146E0,3.4698406E-1,8.1627125E-1],"split_indices":[4,3,3,4,4,4,3,3,4,0,3,1,4,3,4,0,0,0,0,0,0,0,0,0,0,0,0,0,0],"split_type":[0,0,0,0,0,0,0,0,0,0,0,0,0,0,0,0,0,0,0,0,0,0,0,0,0,0,0,0,0],"sum_hessian":[7.32E2,3.27E2,4.05E2,3.13E2,1.4E1,3.75E2,3E1,1.22E2,1.91E2,5E0,9E0,1.6E1,3.59E2,4E0,2.6E1,1.2E2,2E0,1.36E2,5.5E1,2E0,7E0,1.3E1,3E0,3.49E2,1E1,2E0,2E0,1.6E1,1E1],"tree_param":{"num_deleted":"0","num_feature":"5","num_nodes":"29","size_leaf_vector":"0"}},{"base_weights":[4.8371673E-1,4.4354782E-1,7.653447E0,9.529585E-2,1.1753626E0,2.3324776E0,8.649611E0,2.4238904E-1,-2.4524012E0,7.3336977E-1,2.1596608E0,1.2632461E-1,1.9910063E0,-4.6096497E0,2.2537833E-1,8.4009826E-1,-3.7191105E0,1.3009383E1,1.8236171E0],"categories":[],"categories_nodes":[],"categories_segments":[],"categories_sizes":[],"default_left":[0,1,0,1,0,0,0,1,1,0,1,0,0,0,0,0,0,0,0],"id":15,"left_children":[1,3,5,7,9,-1,-1,11,13,15,17,-1,-1,-1,-1,-1,-1,-1,-1],"loss_changes":[2.0655759E2,1.849134E2,1.0272217E0,1.8534563E2,1.00218506E2,0E0,0E0,9.45272E1,1.5700809E2,8.0583046E1,2.3878656E2,0E0,0E0,0E0,0E0,0E0,0E0,0E0,0E0],"parents":[2147483647,0,0,1,1,2,2,3,3,4,4,7,7,8,8,9,9,10,10],"right_children":[2,4,6,8,10,-1,-1,12,14,16,18,-1,-1,-1,-1,-1,-1,-1,-1],"split_conditions":[5.5199997E1,3.1849998E1,7.465E1,3.1150002E1,2.625E1,4.7542855E-1,1.763049E0,3.005E1,3.145E1,2.59E1,3.205E1,2.5748726E-2,4.058265E-1,-9.395842E-1,4.5938835E-2,1.7123711E-1,-7.5806576E-1,2.6517007E0,3.7170762E-1],"split_indices":[3,4,3,4,3,0,0,4,4,3,4,0,0,0,0,0,0,0,0],"split_type":[0,0,0,0,0,0,0,0,0,0,0,0,0,0,0,0,0,0,0],"sum_hessian":[7.28E2,7.25E2,3E0,4.92E2,2.33E2,1E0,2E0,4.66E2,2.6E1,1.62E2,7.1E1,4.38E2,2.8E1,1.4E1,1.2E1,1.59E2,3E0,1E0,7E1],"tree_param":{"num_deleted":"0","num_feature":"5","num_nodes":"19","size_leaf_vector":"0"}},{"base_weights":[3.4587154E-1,-3.02009E-2,1.9321351E0,1.3757747E-1,-9.04469E-1,1.3619771E0,3.856165E0,-1.9987258E-1,1.3619237E0,-5.9370154E-1,-2.6378758E0,1.2228056E0,5.825376E0,5.942837E0,2.7323973E0,2.324812E-1,-5.464379E-1,1.6374142E1,2.974492E-1,-1.2318645E0,4.7533113E-1,-3.113852E0,1.4532089E-1,-6.0331076E-1,1.4623451E0,6.471215E0,5.937195E-1,-6.733494E-1,3.305586E0],"categories":[],"categories_nodes":[],"categories_segments":[],"categories_sizes":[],"default_left":[1,1,1,1,1,0,0,1,1,1,1,0,0,1,1,0,0,0,0,0,0,0,0,0,0,0,0,0,0],"id":16,"left_children":[1,3,5,7,9,11,13,15,17,19,21,23,-1,25,27,-1,-1,-1,-1,-1,-1,-1,-1,-1,-1,-1,-1,-1,-1],"loss_changes":[4.2957434E2,8.5640785E1,1.4613416E2,2.0271849E2,4.907042E1,5.9963882E1,5.6454742E1,5.7814983E1,1.6890225E3,5.5845123E1,1.8998802E1,4.724951E1,0E0,2.4421478E1,4.517282E1,0E0,0E0,0E0,0E0,0E0,0E0,0E0,0E0,0E0,0E0,0E0,0E0,0E0,0E0],"parents":[2147483647,0,0,1,1,2,2,3,3,4,4,5,5,6,6,7,7,8,8,9,9,10,10,11,11,13,13,14,14],"right_children":[2,4,6,8,10,12,14,16,18,20,22,24,-1,26,28,-1,-1,-1,-1,-1,-1,-1,-1,-1,-1,-1,-1,-1,-1],"split_conditions":[3.5E0,2.5E0,2.49E1,5E-1,2.2400002E1,3.735E1,3.455E1,1.415E1,1.5E0,1.855E1,2.725E1,5.85E0,1.1873856E0,2.975E1,2.6E1,4.738661E-2,-1.1138036E-1,3.337539E0,6.062903E-2,-2.5109076E-1,9.688667E-2,-6.34696E-1,2.9620737E-2,-1.2297274E-1,2.980696E-1,1.3190267E0,1.21017754E-1,-1.3724871E-1,6.7377716E-1],"split_indices":[0,0,2,0,2,3,3,2,0,2,2,3,0,2,2,0,0,0,0,0,0,0,0,0,0,0,0,0,0],"split_type":[0,0,0,0,0,0,0,0,0,0,0,0,0,0,0,0,0,0,0,0,0,0,0,0,0,0,0,0,0],"sum_hessian":[7.19E2,5.82E2,1.37E2,4.89E2,9.3E1,1.07E2,3E1,3.84E2,1.05E2,8E1,1.3E1,1.05E2,2E0,9E0,2.1E1,1.71E2,2.13E2,6E0,9.9E1,5E1,3E1,1.1E1,2E0,1.2E1,9.3E1,8E0,1E0,3E0,1.8E1],"tree_param":{"num_deleted":"0","num_feature":"5","num_nodes":"29","size_leaf_vector":"0"}},{"base_weights":[3.0516928E-1,6.3343935E-2,1.3159959E0,-3.1087643E-1,8.285595E-1,9.2208797E-1,3.2307024E0,-8.416361E-1,3.513516E-1,1.1204516E0,-5.201212E-2,1.0047529E0,-4.4575152E0,7.812891E0,2.2040615E0,-2.0457864E-1,-1.8615123E0,1.4562884E1,-1.379087E-1,3.4008563E-1,1.6790864E0,-2.6239042E0,5.765472E-1,-2.2708102E-1,1.1983103E0,4.8711723E-1,2.8583648E0],"categories":[],"categories_nodes":[],"categories_segments":[],"categories_sizes":[],"default_left":[1,1,1,1,1,0,1,1,1,1,1,1,0,0,1,0,0,0,0,0,0,0,0,0,0,0,0],"id":17,"left_children":[1,3,5,7,9,11,13,15,17,19,21,23,-1,-1,25,-1,-1,-1,-1,-1,-1,-1,-1,-1,-1,-1,-1],"loss_changes":[1.8104926E2,1.7178679E2,1.0487419E2,1.4194373E2,5.0693558E1,5.78432E1,9.568222E1,1.4515639E2,1.2535734E3,6.394803E1,8.234214E1,2.8645363E1,0E0,0E0,2.219909E1,0E0,0E0,0E0,0E0,0E0,0E0,0E0,0E0,0E0,0E0,0E0,0E0],"parents":[2147483647,0,0,1,1,2,2,3,3,4,4,5,5,6,6,7,7,8,8,9,9,10,10,11,11,14,14],"right_children":[2,4,6,8,10,12,14,16,18,20,22,24,-1,-1,26,-1,-1,-1,-1,-1,-1,-1,-1,-1,-1,-1,-1],"split_conditions":[3.5E0,5E-1,2.5650002E1,5E-1,2.2150002E1,5E-1,4.5E0,1.6900002E1,1.5E0,1.125E1,2.305E1,8.35E0,-9.085747E-1,1.5925004E0,2.8599998E1,-4.1699234E-2,-3.7943178E-1,2.9683506E0,-2.810991E-2,6.9319606E-2,3.4224793E-1,-5.3483003E-1,1.1751753E-1,-4.628589E-2,2.442514E-1,9.928904E-2,5.826201E-1],"split_indices":[0,1,2,0,2,1,0,2,0,2,2,2,0,0,2,0,0,0,0,0,0,0,0,0,0,0,0],"split_type":[0,0,0,0,0,0,0,0,0,0,0,0,0,0,0,0,0,0,0,0,0,0,0,0,0,0,0],"sum_hessian":[7.4E2,5.98E2,1.42E2,4.02E2,1.96E2,1.19E2,2.3E1,2.23E2,1.79E2,1.47E2,4.9E1,1.18E2,1E0,3E0,2E1,1.38E2,8.5E1,5E0,1.74E2,6.2E1,8.5E1,9E0,4E1,1.6E1,1.02E2,6E0,1.4E1],"tree_param":{"num_deleted":"0","num_feature":"5","num_nodes":"27","size_leaf_vector":"0"}},{"base_weights":[1.7712127E-1,-6.824875E-2,5.052769E-1,-1.3292348E-1,2.3603184E0,3.946899E0,4.142436E-1,4.063376E-3,-1.5637879E0,5.1280327E0,-8.00782E-1,6.394104E0,1.1997553E0,8.628793E-1,-7.659821E-2,-9.3769796E-2,5.188641E0,-5.0672264E0,-1.0917412E0,1.0361985E1,2.0088449E0,1.3628383E0,-1.5060737E0,2.5400364E0,8.978153E0,-1.701232E0,6.401852E0,2.6727858E-1,2.783711E0,-3.5701492E0,4.6563137E-1],"categories":[],"categories_nodes":[],"categories_segments":[],"categories_sizes":[],"default_left":[0,1,0,0,0,1,1,1,0,1,0,0,1,1,1,0,0,0,0,0,0,0,0,0,0,0,0,0,0,0,0],"id":18,"left_children":[1,3,5,7,9,11,13,15,17,19,21,23,25,27,29,-1,-1,-1,-1,-1,-1,-1,-1,-1,-1,-1,-1,-1,-1,-1,-1],"loss_changes":[5.929687E1,6.6595985E1,9.705522E1,8.076232E1,1.0034567E2,4.6111237E1,6.789052E1,1.9170985E2,5.400421E1,7.713846E1,1.1208435E1,1.703157E1,8.6347115E1,1.8344785E2,2.8201978E2,0E0,0E0,0E0,0E0,0E0,0E0,0E0,0E0,0E0,0E0,0E0,0E0,0E0,0E0,0E0,0E0],"parents":[2147483647,0,0,1,1,2,2,3,3,4,4,5,5,6,6,7,7,8,8,9,9,10,10,11,11,12,12,13,13,14,14],"right_children":[2,4,6,8,10,12,14,16,18,20,22,24,26,28,30,-1,-1,-1,-1,-1,-1,-1,-1,-1,-1,-1,-1,-1,-1,-1,-1],"split_conditions":[1.7150002E1,1.9349998E1,1.7349998E1,1.575E1,5E-1,1.815E1,2.2349998E1,1.725E1,1.595E1,1.9599998E1,1.51E1,5E-1,2.0599998E1,2.105E1,2.305E1,-1.9113084E-2,1.0575999E0,-1.032852E0,-2.2252946E-1,2.112082E0,4.0946254E-1,2.7778712E-1,-3.069828E-1,5.1773524E-1,1.8300157E0,-3.4676185E-1,1.3048886E0,5.4479353E-2,5.674034E-1,-7.27703E-1,9.490957E-2],"split_indices":[3,2,3,3,1,2,2,2,3,2,3,1,2,2,2,0,0,0,0,0,0,0,0,0,0,0,0,0,0,0,0],"split_type":[0,0,0,0,0,0,0,0,0,0,0,0,0,0,0,0,0,0,0,0,0,0,0,0,0,0,0,0,0,0,0],"sum_hessian":[7.35E2,4.21E2,3.14E2,4.11E2,1E1,7E0,3.07E2,3.76E2,3.5E1,5E0,5E0,3E0,4E0,1.6E2,1.47E2,3.7E2,6E0,3E0,3.2E1,1E0,4E0,1E0,4E0,2E0,1E0,3E0,1E0,1.23E2,3.7E1,1.9E1,1.28E2],"tree_param":{"num_deleted":"0","num_feature":"5","num_nodes":"31","size_leaf_vector":"0"}},{"base_weights":[2.8675142E-1,-4.1025123E-1,7.587722E-1,2.9204687E-2,-9.384722E-1,6.838331E-1,4.229906E0,-1.3497128E-1,3.2064636E0,-1.8432508E0,-5.3385097E-1,6.4217496E-1,6.3574624E0,7.557052E0,2.199714E0,-4.193093E-1,4.53077E-1,1.28595295E1,-9.621552E-3,-1.041855E0,-3.4891913E0,7.558186E-1,-1.0380749E0,5.735353E0,6.04535E-1,4.7443452E-1,2.7949386E0],"categories":[],"categories_nodes":[],"categories_segments":[],"categories_sizes":[],"default_left":[1,1,1,1,1,0,1,1,0,1,1,1,0,0,0,0,0,0,0,0,0,0,0,0,0,0,0],"id":19,"left_children":[1,3,5,7,9,11,13,15,17,19,21,23,-1,-1,25,-1,-1,-1,-1,-1,-1,-1,-1,-1,-1,-1,-1],"loss_changes":[2.401521E2,6.85057E1,1.1026117E2,8.493677E1,4.8072388E1,9.684012E1,4.4169357E1,2.6106674E1,2.4848436E2,5.0445816E1,6.1911125E1,7.80083E1,0E0,0E0,5.862488E0,0E0,0E0,0E0,0E0,0E0,0E0,0E0,0E0,0E0,0E0,0E0,0E0],"parents":[2147483647,0,0,1,1,2,2,3,3,4,4,5,5,6,6,7,7,8,8,9,9,10,10,11,11,14,14],"right_children":[2,4,6,8,10,12,14,16,18,20,22,24,-1,-1,26,-1,-1,-1,-1,-1,-1,-1,-1,-1,-1,-1,-1],"split_conditions":[2.355E1,1.16E1,3.235E1,1.125E1,1.655E1,7.455E1,3.3300003E1,1.775E1,6.3E0,1.78E1,1.9349998E1,2.3650002E1,1.2958406E0,1.5403528E0,4.155E1,-8.546775E-2,9.235062E-2,2.621156E0,-1.9611595E-3,-2.1236114E-1,-7.1120137E-1,1.540584E-1,-2.1159065E-1,1.1690361E0,1.2322228E-1,9.670392E-2,5.696919E-1],"split_indices":[4,2,2,2,4,3,2,4,3,2,4,4,0,0,3,0,0,0,0,0,0,0,0,0,0,0,0],"split_type":[0,0,0,0,0,0,0,0,0,0,0,0,0,0,0,0,0,0,0,0,0,0,0,0,0,0,0],"sum_hessian":[7.28E2,2.94E2,4.34E2,1.61E2,1.33E2,4.26E2,8E0,1.54E2,7E0,4E1,9.3E1,4.24E2,2E0,2E0,6E0,1.04E2,5E1,1E0,6E0,2.8E1,1.2E1,2.6E1,6.7E1,2E0,4.22E2,2E0,4E0],"tree_param":{"num_deleted":"0","num_feature":"5","num_nodes":"27","size_leaf_vector":"0"}},{"base_weights":[2.5344855E-1,3.7949212E-2,1.2789218E0,1.6523921E-1,-5.520257E-1,7.746903E-1,2.2569344E0,1.7923271E-2,4.035379E0,-3.0128727E0,-4.8123714E-2,1.0896295E0,-1.4144182E0,5.664413E0,1.5316767E0,6.609464E-2,-1.6953915E0,4.1401014E-1,7.6107464E0,-2.259556E-1,-3.5551925E0,5.7387843E0,-2.4711913E-1,5.4978114E-1,3.176381E0,-1.6671512E0,5.564556E-1,3.323298E0,7.6781335E0,6.565153E0,1.2002872E0],"categories":[],"categories_nodes":[],"categories_segments":[],"categories_sizes":[],"default_left":[1,1,0,1,1,1,1,0,0,0,1,0,1,0,1,0,0,0,0,0,0,0,0,0,0,0,0,0,0,0,0],"id":20,"left_children":[1,3,5,7,9,11,13,15,17,19,21,23,25,27,29,-1,-1,-1,-1,-1,-1,-1,-1,-1,-1,-1,-1,-1,-1,-1,-1],"loss_changes":[1.5906342E2,4.4849564E1,5.9894684E1,2.7986313E2,1.3129773E2,5.945383E1,9.5118576E1,3.923256E1,2.2990811E2,2.6401886E1,1.0390773E2,8.1616875E1,6.406849E0,7.483734E0,5.2169388E1,0E0,0E0,0E0,0E0,0E0,0E0,0E0,0E0,0E0,0E0,0E0,0E0,0E0,0E0,0E0,0E0],"parents":[2147483647,0,0,1,1,2,2,3,3,4,4,5,5,6,6,7,7,8,8,9,9,10,10,11,11,12,12,13,13,14,14],"right_children":[2,4,6,8,10,12,14,16,18,20,22,24,26,28,30,-1,-1,-1,-1,-1,-1,-1,-1,-1,-1,-1,-1,-1,-1,-1,-1],"split_conditions":[3.5E0,2.2349998E1,2.5849998E1,2.155E1,2.3E1,2.145E1,2.675E1,2.4099998E1,2.3349998E1,2.145E1,2.3150002E1,1.83E1,2.5150002E1,2.645E1,1.975E1,1.3472061E-2,-3.455714E-1,8.438762E-2,1.5512973E0,-4.6056498E-2,-7.246544E-1,1.1697356E0,-5.0370257E-2,1.1206181E-1,6.474413E-1,-3.398152E-1,1.1342227E-1,6.7738736E-1,1.5650328E0,1.3381742E0,2.4465437E-1],"split_indices":[0,2,3,2,2,2,3,3,3,3,2,3,2,3,2,0,0,0,0,0,0,0,0,0,0,0,0,0,0,0,0],"split_type":[0,0,0,0,0,0,0,0,0,0,0,0,0,0,0,0,0,0,0,0,0,0,0,0,0,0,0,0,0,0,0],"sum_hessian":[7.19E2,5.95E2,1.24E2,4.9E2,1.05E2,8.3E1,4.1E1,4.73E2,1.7E1,1.7E1,8.8E1,7.3E1,1E1,6E0,3.5E1,4.61E2,1.2E1,9E0,8E0,3E0,1.4E1,2E0,8.6E1,5.9E1,1.4E1,9E0,1E0,4E0,2E0,1E0,3.4E1],"tree_param":{"num_deleted":"0","num_feature":"5","num_nodes":"31","size_leaf_vector":"0"}},{"base_weights":[9.294562E-2,-1.069038E-1,9.3845737E-1,-3.4100997E-1,3.3909875E-1,8.464135E-1,4.890339E0,-8.411282E-1,2.9040897E-1,5.496035E-1,-7.419727E-1,-8.6856294E-1,9.860904E-1,-5.0485677E-1,-1.6300658E0,1.05614E1,-7.596003E-2,7.424069E-1,-1.5489288E-1,-1.019908E0,7.2504354E-1,-1.3390818E0,-6.152163E-1,1.0651368E0,-1.750392E0],"categories":[],"categories_nodes":[],"categories_segments":[],"categories_sizes":[],"default_left":[1,1,0,1,1,0,0,0,1,0,0,0,0,0,0,0,0,0,0,0,0,0,0,0,0],"id":21,"left_children":[1,3,5,7,9,11,-1,13,15,17,19,21,23,-1,-1,-1,-1,-1,-1,-1,-1,-1,-1,-1,-1],"loss_changes":[1.24634926E2,6.244957E1,4.7149017E1,1.2403163E2,4.7287357E1,3.4152916E1,0E0,5.727713E1,6.555595E2,2.3613464E1,1.4602489E1,4.8742294E-1,2.9768265E1,0E0,0E0,0E0,0E0,0E0,0E0,0E0,0E0,0E0,0E0,0E0,0E0],"parents":[2147483647,0,0,1,1,2,2,3,3,4,4,5,5,7,7,8,8,9,9,10,10,11,11,12,12],"right_children":[2,4,6,8,10,12,-1,14,16,18,20,22,24,-1,-1,-1,-1,-1,-1,-1,-1,-1,-1,-1,-1],"split_conditions":[3.5E0,5E-1,7.465E1,5E-1,1E0,4.4E0,9.967971E-1,2.055E1,1.5E0,2.4349998E1,2.545E1,1.45E0,5E-1,-1.0290488E-1,-3.3225608E-1,2.1527288E0,-1.5482922E-2,1.5132469E-1,-3.1571794E-2,-2.078877E-1,1.4778551E-1,-2.7294484E-1,-1.2539946E-1,2.1710667E-1,-3.5678214E-1],"split_indices":[0,1,3,0,0,3,0,3,0,3,3,3,1,0,0,0,0,0,0,0,0,0,0,0,0],"split_type":[0,0,0,0,0,0,0,0,0,0,0,0,0,0,0,0,0,0,0,0,0,0,0,0,0],"sum_hessian":[7.36E2,5.96E2,1.4E2,3.91E2,2.05E2,1.38E2,2E0,2.18E2,1.73E2,1.72E2,3.3E1,1E1,1.28E2,1.54E2,6.4E1,5E0,1.68E2,1.35E2,3.7E1,2.8E1,5E0,2E0,8E0,1.25E2,3E0],"tree_param":{"num_deleted":"0","num_feature":"5","num_nodes":"25","size_leaf_vector":"0"}},{"base_weights":[9.08189E-2,-1.5465441E-1,6.015628E-1,6.5650806E-2,-1.5409017E0,1.9166509E0,4.326606E-1,-8.6857766E-2,2.5602431E0,-1.720304E0,2.799984E0,8.7536544E-1,3.257007E0,-2.1831107E0,5.6324464E-1,4.9095586E-2,-1.1663308E0,8.040203E0,1.394525E0,-9.079583E-1,-2.7323215E0,-1.3107481E0,1.9882123E0,4.310128E0,-9.8802567E-1,-3.1351976E0,3.1928368E0,2.6811824E0,4.11372E-1],"categories":[],"categories_nodes":[],"categories_segments":[],"categories_sizes":[],"default_left":[1,1,1,1,0,0,1,0,1,0,0,1,0,0,1,0,0,0,0,0,0,0,0,0,0,0,0,0,0],"id":22,"left_children":[1,3,5,7,9,11,13,15,17,19,-1,21,23,25,27,-1,-1,-1,-1,-1,-1,-1,-1,-1,-1,-1,-1,-1,-1],"loss_changes":[8.923395E1,1.4699736E2,5.048075E1,1.5848822E2,5.6215347E1,3.343695E1,7.159468E1,5.7733154E1,1.4210187E2,5.013408E1,0E0,4.1531002E1,5.3434387E1,6.119388E1,6.226342E1,0E0,0E0,0E0,0E0,0E0,0E0,0E0,0E0,0E0,0E0,0E0,0E0,0E0,0E0],"parents":[2147483647,0,0,1,1,2,2,3,3,4,4,5,5,6,6,7,7,8,8,9,9,11,11,12,12,13,13,14,14],"right_children":[2,4,6,8,10,12,14,16,18,20,-1,22,24,26,28,-1,-1,-1,-1,-1,-1,-1,-1,-1,-1,-1,-1,-1,-1],"split_conditions":[3.1849998E1,2.98E1,3.335E1,2.845E1,3.635E1,2.255E1,3.385E1,2.165E1,2.8650002E1,1.945E1,5.707203E-1,3.225E1,3E1,2.615E1,3.415E1,1.0007146E-2,-2.3773304E-1,1.6388334E0,2.8424585E-1,-1.8506901E-1,-5.569287E-1,-2.671696E-1,4.0525705E-1,8.785328E-1,-2.0138913E-1,-6.390469E-1,6.5079546E-1,5.4650503E-1,8.38499E-2],"split_indices":[4,4,4,4,3,3,4,3,4,3,0,4,3,3,4,0,0,0,0,0,0,0,0,0,0,0,0,0,0],"split_type":[0,0,0,0,0,0,0,0,0,0,0,0,0,0,0,0,0,0,0,0,0,0,0,0,0,0,0,0,0],"sum_hessian":[7.1E2,4.8E2,2.3E2,4.15E2,6.5E1,2.5E1,2.05E2,3.92E2,2.3E1,6.3E1,2E0,1.5E1,1E1,9E0,1.96E2,3.49E2,4.3E1,3E0,2E1,3.6E1,2.7E1,5E0,1E1,8E0,2E0,8E0,1E0,1.2E1,1.84E2],"tree_param":{"num_deleted":"0","num_feature":"5","num_nodes":"29","size_leaf_vector":"0"}},{"base_weights":[8.6012654E-2,-3.3449225E-2,1.0061282E0,-5.9598375E-2,3.2994127E0,5.6851487E0,8.204098E-1,-3.2124534E-2,-2.52373E0,4.007618E0,1.4914032E0,4.9793267E-1,2.2061133E0,-6.3979775E-2,3.9625764E0,1.2985735E0,-8.990869E-1,6.75025E-1,3.4614377E0],"categories":[],"categories_nodes":[],"categories_segments":[],"categories_sizes":[],"default_left":[1,0,1,0,1,0,0,1,0,1,1,1,1,0,0,0,0,0,0],"id":23,"left_children":[1,3,5,7,-1,-1,11,13,-1,-1,-1,15,17,-1,-1,-1,-1,-1,-1],"loss_changes":[7.939497E1,5.597361E1,6.7461205E1,4.2975594E1,4.2523575E-1,0E0,3.5096973E1,8.0422386E1,0E0,0E0,0E0,7.610776E1,2.6493637E1,0E0,0E0,0E0,0E0,0E0,0E0],"parents":[2147483647,0,0,1,1,2,2,3,3,4,4,6,6,7,7,11,11,12,12],"right_children":[2,4,6,8,-1,-1,12,14,-1,-1,-1,16,18,-1,-1,-1,-1,-1,-1],"split_conditions":[3.96E1,5.45E1,3.985E1,4.84E1,6.725188E-1,1.158803E0,3.125E1,3.2800003E1,-5.144115E-1,8.168722E-1,3.039925E-1,2.15E1,4.175E1,-1.3040988E-2,8.076914E-1,2.6468804E-1,-1.8326075E-1,1.3759024E-1,7.0554435E-1],"split_indices":[4,3,4,3,2,0,3,2,0,2147483647,2147483647,2,4,0,0,0,0,0,0],"split_type":[0,0,0,0,0,0,0,0,0,0,0,0,0,0,0,0,0,0,0],"sum_hessian":[7.21E2,6.39E2,8.2E1,6.35E2,4E0,2E0,8E1,6.29E2,6E0,2E0,2E0,6.6E1,1.4E1,6.25E2,4E0,4.2E1,2.4E1,7E0,7E0],"tree_param":{"num_deleted":"2","num_feature":"5","num_nodes":"19","size_leaf_vector":"0"}},{"base_weights":[1.9893607E-1,2.1061021E-1,-4.0214987E0,1.9604118E-1,3.5592716E0,4.381353E-2,4.5113084E-1,1.3118914E-1,-1.7141063E0,1.6817062E0,1.6150516E-1],"categories":[],"categories_nodes":[],"categories_segments":[],"categories_sizes":[],"default_left":[0,0,0,0,0,0,1,0,0,0,0],"id":24,"left_children":[1,3,-1,5,-1,7,9,-1,-1,-1,-1],"loss_changes":[3.5680782E1,3.3745667E1,0E0,2.7317747E1,0E0,6.811577E1,9.3463234E1,0E0,0E0,0E0,0E0],"parents":[2147483647,0,0,1,1,3,3,5,5,6,6],"right_children":[2,4,-1,6,-1,8,10,-1,-1,-1,-1],"split_conditions":[2.000001E0,7.465E1,-8.197015E-1,1.8650002E1,7.254858E-1,1.7849998E1,1.96E1,2.6740262E-2,-3.4938604E-1,3.4278193E-1,3.2919575E-2],"split_indices":[1,3,0,3,0,3,2,0,0,0,0],"split_type":[0,0,0,0,0,0,0,0,0,0,0],"sum_hessian":[7.06E2,7.05E2,1E0,7.03E2,2E0,4.41E2,2.62E2,4.21E2,2E1,4.9E1,2.13E2],"tree_param":{"num_deleted":"0","num_feature":"5","num_nodes":"11","size_leaf_vector":"0"}},{"base_weights":[-3.0710147E-4,-7.5548306E-2,9.5086104E-1,-4.0750176E-2,-2.9499996E0,5.9799075E0,5.295201E-1,-6.7462884E-2,2.4722502E0,2.3056116E0,-5.0861387E0,-3.2699437E0,9.30994E-1,-8.669723E-2,2.4580348E0,2.7873342E0,2.9087257E-1,-9.5981026E-1,1.5526699E0],"categories":[],"categories_nodes":[],"categories_segments":[],"categories_sizes":[],"default_left":[1,1,1,1,1,0,1,0,1,0,0,0,0,0,0,0,0,0,0],"id":25,"left_children":[1,3,5,7,9,-1,11,13,15,-1,-1,-1,17,-1,-1,-1,-1,-1,-1],"loss_changes":[5.1743233E1,6.689688E1,1.091375E2,4.4673347E1,1.0154039E2,0E0,7.931357E1,3.2127724E1,4.0004616E0,0E0,0E0,0E0,5.5561775E1,0E0,0E0,0E0,0E0,0E0,0E0],"parents":[2147483647,0,0,1,1,2,2,3,3,4,4,6,6,7,7,8,8,12,12],"right_children":[2,4,6,8,10,-1,12,14,16,-1,-1,-1,18,-1,-1,-1,-1,-1,-1],"split_conditions":[4.165E1,4.095E1,4.2E1,4.045E1,2.075E1,1.2188836E0,4.26E1,5.45E1,3.2699997E1,4.699525E-1,-1.0367069E0,-6.6651213E-1,1.725E1,-1.7671483E-2,5.0102085E-1,5.6814194E-1,5.9288513E-2,-1.9563799E-1,3.164805E-1],"split_indices":[4,4,4,4,2,0,4,3,2,0,0,0,3,0,0,0,0,0,0],"split_type":[0,0,0,0,0,0,0,0,0,0,0,0,0,0,0,0,0,0,0],"sum_hessian":[7.21E2,6.69E2,5.2E1,6.62E2,7E0,3E0,4.9E1,6.56E2,6E0,2E0,5E0,4E0,4.5E1,6.52E2,4E0,5E0,1E0,1.1E1,3.4E1],"tree_param":{"num_deleted":"0","num_feature":"5","num_nodes":"19","size_leaf_vector":"0"}},{"base_weights":[-8.648809E-2,-1.8069051E-1,7.196377E-1,-1.4055425E-1,-2.1612554E0,-9.3435965E-2,1.6011615E0,-1.7639062E-1,3.7113903E0,-2.685008E0,-7.862495E-1,-1.2129068E0,3.068097E-1,9.000642E0,9.2117286E-1,-1.229318E-1,-1.9199933E0,7.5619135E0,1.4289029E0,-9.602747E-1,-4.5074463E-2,-2.2879994E-1,-2.877894E0,3.6969604E0,-4.8733315E-1,2.4273405E0,2.2161219E-1],"categories":[],"categories_nodes":[],"categories_segments":[],"categories_sizes":[],"default_left":[1,1,1,1,1,1,1,1,1,0,1,1,1,0,1,0,0,0,0,0,0,0,0,0,0,0,0],"id":26,"left_children":[1,3,5,7,9,11,13,15,17,-1,19,21,23,-1,25,-1,-1,-1,-1,-1,-1,-1,-1,-1,-1,-1,-1],"loss_changes":[5.586926E1,5.200229E1,5.533888E1,8.98283E1,7.251034E0,1.8742731E1,1.7787668E2,5.9512177E1,4.192739E1,0E0,6.0163164E-1,1.7365316E1,8.526183E1,0E0,3.6340015E1,0E0,0E0,0E0,0E0,0E0,0E0,0E0,0E0,0E0,0E0,0E0,0E0],"parents":[2147483647,0,0,1,1,2,2,3,3,4,4,5,5,6,6,7,7,8,8,10,10,11,11,12,12,14,14],"right_children":[2,4,6,8,10,12,14,16,18,-1,20,22,24,-1,26,-1,-1,-1,-1,-1,-1,-1,-1,-1,-1,-1,-1],"split_conditions":[2.5650002E1,2.525E1,5E-1,2.4849998E1,3.5E0,2.725E1,1.5E0,2.3849998E1,2.5E1,-5.472848E-1,2.545E1,2.685E1,2.875E1,1.8345995E0,2.665E1,-2.505717E-2,-3.9135194E-1,1.5413437E0,2.9125306E-1,-1.9573265E-1,-9.187521E-3,-4.6636257E-2,-5.866007E-1,7.535509E-1,-9.933305E-2,4.9476448E-1,4.517118E-2],"split_indices":[2,2,0,2,0,2,0,2,2,0,2,2,2,0,2,0,0,0,0,0,0,0,0,0,0,0,0],"split_type":[0,0,0,0,0,0,0,0,0,0,0,0,0,0,0,0,0,0,0,0,0,0,0,0,0,0,0],"sum_hessian":[7.33E2,6.57E2,7.6E1,6.45E2,1.2E1,4E1,3.6E1,6.4E2,5E0,8E0,4E0,1E1,3E1,2E0,3.4E1,6.22E2,1.8E1,1E0,4E0,3E0,1E0,7E0,3E0,5E0,2.5E1,1E1,2.4E1],"tree_param":{"num_deleted":"0","num_feature":"5","num_nodes":"27","size_leaf_vector":"0"}},{"base_weights":[5.996711E-2,-3.7731293E-1,1.7932914E-1,4.5711848E-1,-7.9892397E-1,1.0333996E-1,9.0494144E-1,-6.245456E-1,6.619547E0,-5.359009E-1,-1.876826E0,1.6790284E-1,-2.2329168E0,3.339035E0,5.88421E-1,-1.460951E-1,-3.789866E0,1.5043176E1,1.3044744E0,-9.609877E-1,9.882281E-2,-4.727639E0,-1.095645E0,1.03252925E-1,1.6530128E0,-3.5071816E0,-4.5762601E-1,1.5002604E0,3.8833573E0,-1.7494276E0,8.351059E-1],"categories":[],"categories_nodes":[],"categories_segments":[],"categories_sizes":[],"default_left":[1,0,0,0,1,0,1,0,0,0,1,0,0,0,0,0,0,0,0,0,0,0,0,0,0,0,0,1,1,0,0],"id":27,"left_children":[1,3,5,7,9,11,13,15,17,19,21,23,25,-1,29,-1,-1,-1,-1,-1,-1,-1,-1,-1,-1,-1,-1,-1,-1,-1,-1],"loss_changes":[3.7960964E1,5.5246864E1,3.139067E1,3.574151E2,2.8479568E1,7.850768E1,3.9639023E1,6.911097E1,3.385541E2,2.3029043E1,3.9360214E1,4.83155E1,3.0065697E1,1.7926788E-1,2.9719847E1,0E0,0E0,0E0,0E0,0E0,0E0,0E0,0E0,0E0,0E0,0E0,0E0,0E0,0E0,0E0,0E0],"parents":[2147483647,0,0,1,1,2,2,3,3,4,4,5,5,6,6,7,7,8,8,9,9,10,10,11,11,12,12,13,13,14,14],"right_children":[2,4,6,8,10,12,14,16,18,20,22,24,26,-1,30,-1,-1,-1,-1,-1,-1,-1,-1,-1,-1,-1,-1,-1,-1,-1,-1],"split_conditions":[1.775E1,6.25E0,3.215E1,5.7E0,1.6349998E1,3.06E1,3.345E1,5.1499996E0,5.95E0,9.65E0,1.655E1,2.815E1,3.11E1,6.8059504E-1,3.375E1,-2.9778542E-2,-7.724878E-1,3.0662484E0,2.658908E-1,-1.9587798E-1,2.014304E-2,-9.63634E-1,-2.2332515E-1,2.104603E-2,3.3693334E-1,-7.148683E-1,-9.327784E-2,3.0579785E-1,7.9154414E-1,-3.5658556E-1,1.7021951E-1],"split_indices":[4,3,3,3,4,3,3,3,3,3,4,3,3,3,3,0,0,0,0,0,0,0,0,0,0,0,0,2147483647,2147483647,0,0],"split_type":[0,0,0,0,0,0,0,0,0,0,0,0,0,0,0,0,0,0,0,0,0,0,0,0,0,0,0,0,0,0,0],"sum_hessian":[7.25E2,1.55E2,5.7E2,5.2E1,1.03E2,5.17E2,5.3E1,4.5E1,7E0,8.4E1,1.9E1,5.04E2,1.3E1,5E0,4.8E1,4E1,5E0,2E0,5E0,5E1,3.4E1,3E0,1.6E1,4.84E2,2E1,7E0,6E0,2E0,3E0,4E0,4.4E1],"tree_param":{"num_deleted":"2","num_feature":"5","num_nodes":"31","size_leaf_vector":"0"}},{"base_weights":[7.727549E-2,-1.8273607E-1,2.9087198E-1,-2.3002211E-2,-9.557807E-1,2.8732388E0,1.7727014E-1,-6.41897E-2,5.6723723E0,-1.4790995E0,9.292292E-1,-6.387682E-2,6.1854787E0,-4.0384987E-1,3.5353988E-1,8.1271294E-4,-1.6302308E0,-1.9076604E0,7.414521E-1,2.5711021E0,-1.4148061E0,1.1654059E0,-1.5262407E0,2.2567945E0,1.1981021E1,9.74054E-2,-3.7118976E0,5.012025E0,2.7338406E-1],"categories":[],"categories_nodes":[],"categories_segments":[],"categories_sizes":[],"default_left":[1,0,1,0,0,0,1,1,0,0,0,0,0,1,1,0,0,0,0,0,0,0,0,0,0,0,0,0,0],"id":28,"left_children":[1,3,5,7,9,11,13,15,-1,17,19,21,23,25,27,-1,-1,-1,-1,-1,-1,-1,-1,-1,-1,-1,-1,-1,-1],"loss_changes":[4.098433E1,4.109732E1,1.183021E2,6.534226E1,5.760271E1,1.6577843E2,3.998955E1,2.8097145E1,0E0,4.4238304E1,5.3669514E1,1.9755278E1,1.5511212E2,1.512556E2,1.1027779E2,0E0,0E0,0E0,0E0,0E0,0E0,0E0,0E0,0E0,0E0,0E0,0E0,0E0,0E0],"parents":[2147483647,0,0,1,1,2,2,3,3,4,4,5,5,6,6,7,7,9,9,10,10,11,11,12,12,13,13,14,14],"right_children":[2,4,6,8,10,12,14,16,-1,18,20,22,24,26,28,-1,-1,-1,-1,-1,-1,-1,-1,-1,-1,-1,-1,-1,-1],"split_conditions":[2.4849998E1,1.725E1,2.5650002E1,1.7E1,3.27E1,1.235E1,3.005E1,2.425E1,1.1561989E0,5E-1,4.83E1,1.0950001E1,5E-1,2.98E1,3.0150002E1,1.6565516E-4,-3.322897E-1,-3.8883814E-1,1.5113008E-1,5.240674E-1,-2.8837973E-1,2.375445E-1,-3.1109342E-1,4.600021E-1,2.4420898E0,1.9854128E-2,-7.5659555E-1,1.0216002E0,5.5723835E-2],"split_indices":[4,3,4,3,3,3,4,4,0,1,3,3,1,4,4,0,0,0,0,0,0,0,0,0,0,0,0,0,0],"split_type":[0,0,0,0,0,0,0,0,0,0,0,0,0,0,0,0,0,0,0,0,0,0,0,0,0,0,0,0,0],"sum_hessian":[7.36E2,3.32E2,4.04E2,2.76E2,5.6E1,1.6E1,3.88E2,2.75E2,1E0,4.4E1,1.2E1,9E0,7E0,9E1,2.98E2,2.65E2,1E1,3.7E1,7E0,7E0,5E0,5E0,4E0,5E0,2E0,7.9E1,1.1E1,4E0,2.94E2],"tree_param":{"num_deleted":"0","num_feature":"5","num_nodes":"29","size_leaf_vector":"0"}},{"base_weights":[6.678401E-2,7.681705E-2,-3.6286685E0,-4.8316944E-2,3.9321026E-1,5.9160415E-2,-1.6492425E0,1.8521848E0,-5.8883846E-2,2.5437988E-2,3.3386374E0,-1.1768346E0,-4.05936E0,1.1197354E0,6.0869193E0,-2.2607043E0,2.2063482E-1],"categories":[],"categories_nodes":[],"categories_segments":[],"categories_sizes":[],"default_left":[0,1,0,1,1,0,1,1,0,0,0,0,0,0,0,0,0],"id":29,"left_children":[1,3,-1,5,7,9,11,13,15,-1,-1,-1,-1,-1,-1,-1,-1],"loss_changes":[2.7381762E1,2.8920828E1,0E0,9.025872E1,1.3664499E2,5.43263E1,3.2795235E1,1.4516898E2,9.835532E1,0E0,0E0,0E0,0E0,0E0,0E0,0E0,0E0],"parents":[2147483647,0,0,1,1,3,3,4,4,5,5,6,6,7,7,8,8],"right_children":[2,4,-1,6,8,10,12,14,16,-1,-1,-1,-1,-1,-1,-1,-1],"split_conditions":[2.000001E0,2.075E1,-7.39631E-1,1.99E1,2.1849998E1,2.335E1,2.0650002E1,2.1650002E1,2.195E1,5.1850216E-3,6.80514E-1,-2.3987402E-1,-8.2741874E-1,2.282355E-1,1.2406958E0,-4.6079904E-1,4.497196E-2],"split_indices":[1,2,0,2,2,3,2,2,3,0,0,0,0,0,0,0,0],"split_type":[0,0,0,0,0,0,0,0,0,0,0,0,0,0,0,0,0],"sum_hessian":[7.3E2,7.29E2,1E0,5.23E2,2.06E2,4.91E2,3.2E1,4.8E1,1.58E2,4.87E2,4E0,2.8E1,4E0,4.2E1,6E0,1.7E1,1.41E2],"tree_param":{"num_deleted":"0","num_feature":"5","num_nodes":"17","size_leaf_vector":"0"}},{"base_weights":[8.4997766E-2,1.507203E-1,-4.7261384E-1,1.3179645E-1,4.200649E0,-2.7764885E0,3.874333E-2,-1.2955746E-2,5.9026146E-1,5.344304E0,9.5666885E-1,-7.132199E-1,-3.27436E0,-5.363482E-1,5.952338E-1,-5.0117396E-2,4.5611663E0,1.5048888E0,2.175071E-1,-1.9762139E0,-4.026779E0,-2.1297145E0,8.2125425E-1,1.1613289E0,-8.2291794E-1],"categories":[],"categories_nodes":[],"categories_segments":[],"categories_sizes":[],"default_left":[0,0,0,1,1,0,1,0,1,0,0,0,1,0,0,0,0,0,0,0,0,0,0,0,0],"id":30,"left_children":[1,3,5,7,9,11,13,15,17,-1,-1,-1,19,21,23,-1,-1,-1,-1,-1,-1,-1,-1,-1,-1],"loss_changes":[2.6750723E1,4.9415813E1,9.082149E1,4.3144127E1,6.017254E0,1.2046059E1,2.0801361E1,8.436965E1,5.2857964E1,0E0,0E0,0E0,2.7864685E0,7.097009E1,2.7448368E1,0E0,0E0,0E0,0E0,0E0,0E0,0E0,0E0,0E0,0E0],"parents":[2147483647,0,0,1,1,2,2,3,3,4,4,5,5,6,6,7,7,8,8,12,12,13,13,14,14],"right_children":[2,4,6,8,10,12,14,16,18,-1,-1,-1,20,22,24,-1,-1,-1,-1,-1,-1,-1,-1,-1,-1],"split_conditions":[2.955E1,2.925E1,3.11E1,3.385E1,1.5E0,2.9849998E1,1E0,2.845E1,3.565E1,1.0893288E0,1.9499767E-1,-1.453755E-1,1E0,3.55E1,4.43E1,-1.0215421E-2,9.2970186E-1,3.0674127E-1,4.4334438E-2,-4.028114E-1,-8.2077783E-1,-4.340994E-1,1.6739613E-1,2.367135E-1,-1.6773525E-1],"split_indices":[3,3,3,4,0,3,0,3,4,0,0,0,0,3,3,0,0,0,0,0,0,0,0,0,0],"split_type":[0,0,0,0,0,0,0,0,0,0,0,0,0,0,0,0,0,0,0,0,0,0,0,0,0],"sum_hessian":[7.27E2,6.51E2,7.6E1,6.49E2,2E0,1.3E1,6.3E1,4.94E2,1.55E2,1E0,1E0,3E0,1E1,3.1E1,3.2E1,4.91E2,3E0,4.4E1,1.11E2,5E0,5E0,1.4E1,1.7E1,2.3E1,9E0],"tree_param":{"num_deleted":"0","num_feature":"5","num_nodes":"25","size_leaf_vector":"0"}},{"base_weights":[6.7136966E-2,-2.1288782E-1,3.7977284E-1,-6.917028E-1,4.007876E-1,9.057457E0,1.7627066E-1,5.508412E-1,-1.0795785E0,7.50064E-1,-1.3473709E0,6.665147E-1,1.1743352E1,-1.5313952E-1,6.608233E-1,2.1399473E-1,3.7417684E0,-3.2953415E0,-1.005442E0,2.8791237E-1,1.4926747E0,-1.517172E0,6.299629E-1,-1.1015091E0,2.1012812E0,-6.04758E-1,4.3064806E-1,3.0741885E-1,9.1008306E-1],"categories":[],"categories_nodes":[],"categories_segments":[],"categories_sizes":[],"default_left":[1,0,1,1,1,1,1,1,1,1,1,1,0,1,1,0,0,0,0,0,0,0,0,0,0,0,0,0,0],"id":31,"left_children":[1,3,5,7,9,11,13,15,17,19,21,23,-1,25,27,-1,-1,-1,-1,-1,-1,-1,-1,-1,-1,-1,-1,-1,-1],"loss_changes":[6.486474E1,1.1516748E2,6.164781E2,1.0662427E2,1.06032196E2,1.724704E2,5.4849686E1,5.6166473E1,2.4283905E1,4.8990852E1,1.0692612E1,9.924684E0,0E0,5.4308533E1,1.1964668E1,0E0,0E0,0E0,0E0,0E0,0E0,0E0,0E0,0E0,0E0,0E0,0E0,0E0,0E0],"parents":[2147483647,0,0,1,1,2,2,3,3,4,4,5,5,6,6,7,7,8,8,9,9,10,10,11,11,13,13,14,14],"right_children":[2,4,6,8,10,12,14,16,18,20,22,24,-1,26,28,-1,-1,-1,-1,-1,-1,-1,-1,-1,-1,-1,-1,-1,-1],"split_conditions":[5E-1,5E-1,1.5E0,1.065E1,2.525E1,1.215E1,3.5E0,1.01E1,1.085E1,1.54E1,3.29E1,9.5E0,2.3936458E0,1.83E1,1.725E1,4.3618515E-2,7.626841E-1,-6.71689E-1,-2.049391E-1,5.8685135E-2,3.0425167E-1,-3.0924493E-1,1.2840526E-1,-2.2452044E-1,4.2830384E-1,-1.2326774E-1,8.777893E-2,6.266114E-2,1.855021E-1],"split_indices":[0,1,0,2,2,2,0,2,2,2,2,2,0,2,2,0,0,0,0,0,0,0,0,0,0,0,0,0,0],"split_type":[0,0,0,0,0,0,0,0,0,0,0,0,0,0,0,0,0,0,0,0,0,0,0,0,0,0,0,0,0],"sum_hessian":[7.39E2,3.9E2,3.49E2,2.19E2,1.71E2,7E0,3.42E2,5.2E1,1.67E2,1.43E2,2.8E1,2E0,5E0,2.04E2,1.38E2,4.8E1,4E0,4E0,1.63E2,8.9E1,5.4E1,2.6E1,2E0,1E0,1E0,1.15E2,8.9E1,5.8E1,8E1],"tree_param":{"num_deleted":"0","num_feature":"5","num_nodes":"29","size_leaf_vector":"0"}},{"base_weights":[5.1513594E-2,-1.3548358E-1,2.5780118E-1,3.7446466E-1,-4.8358715E-1,7.5359554E0,9.0228E-2,1.7334996E-1,4.745493E0,-1.0630581E0,2.1413128E-1,5.985864E-1,9.748648E0,-3.8039777E-2,1.9099381E0,-1.3177485E-2,1.9027162E0,6.580612E0,1.7240005E0,-3.6632202E0,-7.6249635E-1,5.5534067E0,-1.02043085E-1,-9.892492E-1,1.8871288E0,1.0304536E-1,-1.3418885E0,2.6542447E0,-1.7051151E-1],"categories":[],"categories_nodes":[],"categories_segments":[],"categories_sizes":[],"default_left":[1,0,1,0,1,0,1,1,1,0,1,0,0,1,1,0,0,0,0,0,0,0,0,0,0,0,0,0,0],"id":32,"left_children":[1,3,5,7,9,11,13,15,17,19,21,23,-1,25,27,-1,-1,-1,-1,-1,-1,-1,-1,-1,-1,-1,-1,-1,-1],"loss_changes":[2.8889172E1,6.9944405E1,4.3350595E2,1.3982985E2,9.48356E1,1.16966644E2,8.15328E1,4.9701515E1,2.7468613E1,9.7240005E1,1.8119788E2,8.004822E0,0E0,6.0291126E1,3.60679E1,0E0,0E0,0E0,0E0,0E0,0E0,0E0,0E0,0E0,0E0,0E0,0E0,0E0,0E0],"parents":[2147483647,0,0,1,1,2,2,3,3,4,4,5,5,6,6,7,7,8,8,9,9,10,10,11,11,13,13,14,14],"right_children":[2,4,6,8,10,12,14,16,18,20,22,24,-1,26,28,-1,-1,-1,-1,-1,-1,-1,-1,-1,-1,-1,-1,-1,-1],"split_conditions":[5E-1,1.34E1,1.5E0,1.31E1,3.5300003E1,8.35E0,3.9449997E1,3.2300003E1,3.035E1,1.4299999E1,3.555E1,5.95E0,1.9870654E0,3.565E1,4.5E0,-2.6859648E-3,3.8783035E-1,1.3413253E0,3.5140276E-1,-7.4667364E-1,-1.5541951E-1,1.1319501E0,-2.0799426E-2,-2.0163852E-1,3.8465318E-1,2.1003721E-2,-2.7351695E-1,5.410143E-1,-3.4755338E-2],"split_indices":[0,3,0,3,4,3,4,4,4,3,4,3,0,4,0,0,0,0,0,0,0,0,0,0,0,0,0,0,0],"split_type":[0,0,0,0,0,0,0,0,0,0,0,0,0,0,0,0,0,0,0,0,0,0,0,0,0,0,0,0,0],"sum_hessian":[7.47E2,3.92E2,3.55E2,1.59E2,2.33E2,7E0,3.48E2,1.53E2,6E0,1.27E2,1.06E2,2E0,5E0,3.26E2,2.2E1,1.39E2,1.4E1,3E0,3E0,1.2E1,1.15E2,5E0,1.01E2,1E0,1E0,2.95E2,3.1E1,1.6E1,6E0],"tree_param":{"num_deleted":"0","num_feature":"5","num_nodes":"29","size_leaf_vector":"0"}},{"base_weights":[3.9247505E-2,4.8582036E-2,-3.3081367E0,-2.4901804E-1,1.4584789E-1,-2.6404118E-2,-9.162597E-1,4.0625615E0,1.0148367E-1,-1.9339077E-1,1.5298873E0,-1.1935546E0,4.8076206E-1,1.3602097E-1,5.991826E0,-1.6097167E-1,4.4009987E-1],"categories":[],"categories_nodes":[],"categories_segments":[],"categories_sizes":[],"default_left":[0,0,0,0,1,0,1,0,1,0,0,0,0,0,0,0,0],"id":33,"left_children":[1,3,-1,5,7,9,11,13,15,-1,-1,-1,-1,-1,-1,-1,-1],"loss_changes":[2.2470549E1,2.067505E1,0E0,2.6118366E1,9.307164E1,3.4859894E1,1.761885E1,4.463701E1,4.7439423E1,0E0,0E0,0E0,0E0,0E0,0E0,0E0,0E0],"parents":[2147483647,0,0,1,1,3,3,4,4,5,5,6,6,7,7,8,8],"right_children":[2,4,-1,6,8,10,12,14,16,-1,-1,-1,-1,-1,-1,-1,-1],"split_conditions":[2.000001E0,9.55E0,-6.7429703E-1,8.15E0,9.85E0,7.75E0,3.5E0,9.700001E0,5E-1,-3.9418813E-2,3.1183672E-1,-2.4328206E-1,9.7993664E-2,2.7725136E-2,1.221313E0,-3.2810833E-2,8.970549E-2],"split_indices":[1,3,0,3,3,3,0,3,0,0,0,0,0,0,0,0,0],"split_type":[0,0,0,0,0,0,0,0,0,0,0,0,0,0,0,0,0],"sum_hessian":[7.13E2,7.12E2,1E0,1.75E2,5.37E2,1.32E2,4.3E1,5E0,5.32E2,1.2E2,1.2E1,3.6E1,7E0,2E0,3E0,3E2,2.32E2],"tree_param":{"num_deleted":"0","num_feature":"5","num_nodes":"17","size_leaf_vector":"0"}},{"base_weights":[6.794265E-2,2.2972794E-2,8.1870794E-1,1.4756337E-1,-5.319342E-1,-2.3539533E-1,1.5751725E0,3.797268E-2,1.654878E0,-2.9876605E-1,-2.5357218E0,9.860525E-1,-1.3111589E0,4.839805E0,8.783296E-1,1.3080816E-1,-9.2955273E-1,6.0225755E-1,5.526922E0,-2.0058067E0,4.2197883E-2,-3.2836766E0,-3.1903744E-2,-3.4991097E-1,1.7123528E0,1.328659E0,-2.6323178E0,1.5215263E0,7.3973207E0,-9.566676E-1,1.5115579E0],"categories":[],"categories_nodes":[],"categories_segments":[],"categories_sizes":[],"default_left":[1,1,0,1,1,1,1,1,1,1,1,1,1,1,1,0,0,0,0,0,0,0,0,0,0,0,0,0,0,0,0],"id":34,"left_children":[1,3,5,7,9,11,13,15,17,19,21,23,25,27,29,-1,-1,-1,-1,-1,-1,-1,-1,-1,-1,-1,-1,-1,-1,-1,-1],"loss_changes":[2.4492264E1,4.7505913E1,3.306385E1,9.260743E1,5.811207E1,2.4944675E1,5.034753E1,4.7187637E1,1.5155151E2,6.643712E1,2.4240898E1,9.3319645E0,3.8373646E1,2.2690987E1,2.5847475E1,0E0,0E0,0E0,0E0,0E0,0E0,0E0,0E0,0E0,0E0,0E0,0E0,0E0,0E0,0E0,0E0],"parents":[2147483647,0,0,1,1,2,2,3,3,4,4,5,5,6,6,7,7,8,8,9,9,10,10,11,11,12,12,13,13,14,14],"right_children":[2,4,6,8,10,12,14,16,18,20,22,24,26,28,30,-1,-1,-1,-1,-1,-1,-1,-1,-1,-1,-1,-1,-1,-1,-1,-1],"split_conditions":[4.26E1,2.2349998E1,5E-1,2.105E1,4.0300003E1,4.46E1,1.815E1,1.995E1,3.51E1,2.305E1,3.07E1,1.73E1,1.775E1,1.72E1,2.255E1,2.6662609E-2,-1.894706E-1,1.2275807E-1,1.1265517E0,-4.0884328E-1,8.601189E-3,-6.6931134E-1,-6.5029357E-3,-7.13223E-2,3.4902862E-1,2.7082038E-1,-5.36545E-1,3.101325E-1,1.5077949E0,-1.9499741E-1,3.0810064E-1],"split_indices":[4,2,1,2,4,4,2,2,4,2,2,2,2,2,2,0,0,0,0,0,0,0,0,0,0,0,0,0,0,0,0],"split_type":[0,0,0,0,0,0,0,0,0,0,0,0,0,0,0,0,0,0,0,0,0,0,0,0,0,0,0,0,0,0,0],"sum_hessian":[7.25E2,6.85E2,4E1,5.6E2,1.25E2,1.7E1,2.3E1,5.23E2,3.7E1,1.13E2,1.2E1,8E0,9E0,3E0,2E1,4.78E2,4.5E1,3E1,7E0,1.8E1,9.5E1,9E0,3E0,3E0,5E0,3E0,6E0,2E0,1E0,5E0,1.5E1],"tree_param":{"num_deleted":"0","num_feature":"5","num_nodes":"31","size_leaf_vector":"0"}},{"base_weights":[1.0905731E-1,2.5426224E-1,-1.9039018E-1,4.4983868E-2,9.250085E-1,-6.3177437E-1,2.9955152E-1,4.5168272E-1,-2.3367925E-1,6.208394E0,5.287507E-1,1.5719292E-1,-1.5170122E0,7.518881E-1,-4.542961E-1,2.8595838E-1,4.436649E0,-2.202639E0,-4.9150236E-2,1.4163647E0,8.800339E0,8.2674426E-1,-3.3367603E0,-1.6425484E-1,1.3858348E0,-3.4244943E0,-1.353674E0,8.6480165E-3,1.6074783E0,-1.5967281E0,2.1474703E-1],"categories":[],"categories_nodes":[],"categories_segments":[],"categories_sizes":[],"default_left":[1,1,1,0,1,0,1,0,1,0,1,0,0,1,0,0,0,0,0,0,0,0,0,0,0,0,0,0,0,0,0],"id":35,"left_children":[1,3,5,7,9,11,13,15,17,19,21,23,25,27,29,-1,-1,-1,-1,-1,-1,-1,-1,-1,-1,-1,-1,-1,-1,-1,-1],"loss_changes":[3.1528833E1,6.846025E1,5.1441097E1,4.2378372E1,2.3957286E2,8.7541435E1,3.887377E1,9.9113E1,8.055105E1,8.690091E1,1.2831543E2,2.6688892E1,1.3746658E1,4.5135624E1,3.320935E1,0E0,0E0,0E0,0E0,0E0,0E0,0E0,0E0,0E0,0E0,0E0,0E0,0E0,0E0,0E0,0E0],"parents":[2147483647,0,0,1,1,2,2,3,3,4,4,5,5,6,6,7,7,8,8,9,9,10,10,11,11,12,12,13,13,14,14],"right_children":[2,4,6,8,10,12,14,16,18,20,22,24,26,28,30,-1,-1,-1,-1,-1,-1,-1,-1,-1,-1,-1,-1,-1,-1,-1,-1],"split_conditions":[2.5E0,5E-1,2.7150002E1,1.34E1,1.5E0,1.11E1,2.67E1,1.31E1,2.24E1,1.295E1,3.095E1,1.005E1,1.185E1,3.5E0,3.105E1,5.8286853E-2,9.043215E-1,-4.489636E-1,-1.0018285E-2,2.886974E-1,1.7937717E0,1.6851516E-1,-6.801314E-1,-3.348004E-2,2.8247452E-1,-6.9801414E-1,-2.759192E-1,1.7627239E-3,3.2765207E-1,-3.2546085E-1,4.3771856E-2],"split_indices":[0,0,4,3,0,3,3,3,4,3,4,3,3,0,3,0,0,0,0,0,0,0,0,0,0,0,0,0,0,0,0],"split_type":[0,0,0,0,0,0,0,0,0,0,0,0,0,0,0,0,0,0,0,0,0,0,0,0,0,0,0,0,0,0,0],"sum_hessian":[7.23E2,4.87E2,2.36E2,3.72E2,1.15E2,1.24E2,1.12E2,1.51E2,2.21E2,7E0,1.08E2,6.6E1,5.8E1,7E1,4.2E1,1.46E2,5E0,1.8E1,2.03E2,3E0,4E0,1.01E2,7E0,5.3E1,1.3E1,3E0,5.5E1,3.8E1,3.2E1,1.5E1,2.7E1],"tree_param":{"num_deleted":"0","num_feature":"5","num_nodes":"31","size_leaf_vector":"0"}},{"base_weights":[-2.2331761E-2,-3.394111E-2,2.7752254E0,8.652231E-3,-8.215761E-1,3.3320265E0,8.308115E-1,-2.7157752E-2,3.4809844E0,-2.2420511E0,-1.3437322E-1,-1.3217747E-1,2.6035315E-1,2.083063E0,5.9342575E0,-9.692267E-1,-4.545393E0,1.9703318E0,-3.9186248E-1],"categories":[],"categories_nodes":[],"categories_segments":[],"categories_sizes":[],"default_left":[1,1,1,1,0,1,1,1,1,0,0,0,0,0,0,0,0,0,0],"id":36,"left_children":[1,3,-1,7,9,-1,-1,11,13,15,17,-1,-1,-1,-1,-1,-1,-1,-1],"loss_changes":[2.3575653E1,2.419522E1,4.7966957E-1,8.5270294E1,3.5816444E1,0E0,0E0,2.0536352E1,1.1644951E1,3.0775482E1,1.4862511E1,0E0,0E0,0E0,0E0,0E0,0E0,0E0,0E0],"parents":[2147483647,0,0,1,1,2,2,3,3,4,4,7,7,8,8,9,9,10,10],"right_children":[2,4,-1,8,10,-1,-1,12,14,16,18,-1,-1,-1,-1,-1,-1,-1,-1],"split_conditions":[3.555E1,2.8849998E1,5.6567377E-1,2.755E1,3.55E1,6.791665E-1,1.6934419E-1,5E-1,2.8599998E1,3.4550003E1,3.7199997E1,-2.6941715E-2,5.3067744E-2,4.245904E-1,1.2095789E0,-1.9755735E-1,-9.264868E-1,4.0161243E-1,-7.987327E-2],"split_indices":[2,2,2,2,3,2147483647,2147483647,1,2,3,3,0,0,0,0,0,0,0,0],"split_type":[0,0,0,0,0,0,0,0,0,0,0,0,0,0,0,0,0,0,0],"sum_hessian":[7.22E2,7.2E2,2E0,6.84E2,3.6E1,1E0,1E0,6.78E2,6E0,1.1E1,2.5E1,4.97E2,1.81E2,5E0,1E0,8E0,3E0,2E0,2.3E1],"tree_param":{"num_deleted":"2","num_feature":"5","num_nodes":"19","size_leaf_vector":"0"}},{"base_weights":[-6.1736503E-3,-9.2398584E-2,3.6323085E-1,7.6232203E-3,-5.3184813E-1,-7.2921836E-1,4.432404E-1,-2.1225591E-1,3.3080742E-1,1.0649644E0,-6.0085016E-1,-3.8394514E-1,-9.977026E-1,1.6028098E0,2.3408441E-1,-8.043746E-2,-5.6998414E-1,1.965236E0,1.382863E-1,1.5058666E0,2.6907393E-1,-5.331228E-1,-2.2284803E0,-1.128333E0,2.7033198E-1,-1.1263107E0,-2.4163508E-1,9.321544E-1,4.0523925E0,-7.265869E-1,4.876625E-1],"categories":[],"categories_nodes":[],"categories_segments":[],"categories_sizes":[],"default_left":[1,1,0,0,0,0,1,0,0,0,0,0,1,1,0,0,0,0,0,0,0,0,0,0,0,1,1,0,0,0,0],"id":37,"left_children":[1,3,5,7,9,11,13,15,17,19,21,23,-1,27,29,-1,-1,-1,-1,-1,-1,-1,-1,-1,-1,-1,-1,-1,-1,-1,-1],"loss_changes":[2.373136E1,2.6552597E1,1.264752E1,3.510352E1,1.2980408E1,5.43941E-1,3.1638884E1,1.3817776E1,6.2660645E1,1.3493605E0,1.0717331E1,3.2272396E0,2.1402597E-1,2.9079056E1,2.7881712E1,0E0,0E0,0E0,0E0,0E0,0E0,0E0,0E0,0E0,0E0,0E0,0E0,0E0,0E0,0E0,0E0],"parents":[2147483647,0,0,1,1,2,2,3,3,4,4,5,5,6,6,7,7,8,8,9,9,10,10,11,11,12,12,13,13,14,14],"right_children":[2,4,6,8,10,12,14,16,18,20,22,24,-1,28,30,-1,-1,-1,-1,-1,-1,-1,-1,-1,-1,-1,-1,-1,-1,-1,-1],"split_conditions":[3.5E0,2.5E0,4.4E0,1.7150002E1,3.8000002E0,3.15E0,8.55E0,1.34E1,1.7849998E1,3.15E0,3.03E1,1.45E0,-2.0336157E-1,8.25E0,1.345E1,-1.6395556E-2,-1.1617979E-1,4.0057376E-1,2.8186874E-2,3.069406E-1,5.48453E-2,-1.0866634E-1,-4.5423082E-1,-2.2998795E-1,5.5101726E-2,-2.2957575E-1,-4.9252443E-2,1.900009E-1,8.2599854E-1,-1.481001E-1,9.940018E-2],"split_indices":[0,0,3,3,3,3,3,3,3,3,3,3,0,3,3,0,0,0,0,0,0,0,0,0,0,2147483647,2147483647,0,0,0,0],"split_type":[0,0,0,0,0,0,0,0,0,0,0,0,0,0,0,0,0,0,0,0,0,0,0,0,0,0,0,0,0,0,0],"sum_hessian":[7.43E2,6.03E2,1.4E2,4.92E2,1.11E2,9E0,1.31E2,2.93E2,1.99E2,4E0,1.07E2,5E0,4E0,1.9E1,1.12E2,2.15E2,7.8E1,2E1,1.79E2,2E0,2E0,1.04E2,3E0,2E0,3E0,3E0,1E0,1.6E1,3E0,2.3E1,8.9E1],"tree_param":{"num_deleted":"2","num_feature":"5","num_nodes":"31","size_leaf_vector":"0"}},{"base_weights":[-1.0472244E-2,7.681106E-2,-3.6428434E-1,-2.3617214E-3,1.1485977E0,-2.3322058E0,-1.7208238E-1,2.9360449E-2,-1.7373283E0,4.1943103E-1,3.694587E0,-9.2239064E-1,-3.4088485E0,-1.6961324E0,6.185815E-2,2.9567606E-3,7.222887E0,-3.5484765E0,-8.409816E-1,4.0027447E0,-3.6340153E-1,7.606923E0,4.7059855E-1,-1.7942456E0,-2.147996E-1,-3.9407449E0,-1.3860716E0,8.265956E-1,-2.0631356E0,4.162698E0,-2.3425514E-1],"categories":[],"categories_nodes":[],"categories_segments":[],"categories_sizes":[],"default_left":[1,0,0,1,1,1,1,1,1,1,1,1,0,0,1,0,0,0,0,0,0,0,0,0,0,0,0,0,0,0,0],"id":38,"left_children":[1,3,5,7,9,11,13,15,17,19,21,23,25,27,29,-1,-1,-1,-1,-1,-1,-1,-1,-1,-1,-1,-1,-1,-1,-1,-1],"loss_changes":[2.294234E1,5.0577084E1,5.5199696E1,3.0651525E1,7.456485E1,1.658799E1,4.823743E1,1.03873436E2,1.3249966E1,9.402405E1,1.0994014E2,3.9330144E0,2.0691986E0,1.8370667E1,1.4426407E2,0E0,0E0,0E0,0E0,0E0,0E0,0E0,0E0,0E0,0E0,0E0,0E0,0E0,0E0,0E0,0E0],"parents":[2147483647,0,0,1,1,2,2,3,3,4,4,5,5,6,6,7,7,8,8,9,9,10,10,11,11,12,12,13,13,14,14],"right_children":[2,4,6,8,10,12,14,16,18,20,22,24,26,28,30,-1,-1,-1,-1,-1,-1,-1,-1,-1,-1,-1,-1,-1,-1,-1,-1],"split_conditions":[2.2150002E1,2.325E1,2.2150002E1,2.175E1,2.17E1,2.2849998E1,2.305E1,2.1650002E1,1E0,1.965E1,1.5E0,2.2650002E1,2.1900002E1,2.2849998E1,2.355E1,6.0267607E-4,1.47224E0,-7.2328544E-1,-1.7141716E-1,8.1587887E-1,-7.407208E-2,1.550518E0,9.592203E-2,-3.657208E-1,-4.378257E-2,-8.0324143E-1,-2.8252277E-1,1.6848487E-1,-4.2052862E-1,8.484821E-1,-4.774819E-2],"split_indices":[2,3,3,2,2,2,2,2,0,2,0,2,3,3,2,0,0,0,0,0,0,0,0,0,0,0,0,0,0,0,0],"split_type":[0,0,0,0,0,0,0,0,0,0,0,0,0,0,0,0,0,0,0,0,0,0,0,0,0,0,0,0,0,0,0],"sum_hessian":[7.41E2,5.95E2,1.46E2,5.55E2,4E1,1.2E1,1.34E2,5.46E2,9E0,3.2E1,8E0,6E0,6E0,1.7E1,1.17E2,5.45E2,1E0,2E0,7E0,5E0,2.7E1,3E0,5E0,2E0,4E0,4E0,2E0,2E0,1.5E1,7E0,1.1E2],"tree_param":{"num_deleted":"0","num_feature":"5","num_nodes":"31","size_leaf_vector":"0"}},{"base_weights":[-1.0274898E-1,3.6857095E-1,-1.6562732E-1,6.3481534E-1,-1.7662708E-1,-5.3652287E-1,-3.752003E-2,7.901281E-1,-2.6394287E-2,-4.5770305E-1,9.771147E-1,-3.0383231E-2,-1.8066099E0,1.9119893E0,-1.5363312E-1,5.7931423E-1,2.9115481E0,-7.135989E-1,1.5264146E0,-8.847622E-1,2.2865598E-1,1.2453312E0,5.3167367E-1,-3.1383142E-1,1.3883768E0,-4.7910976E0,-1.2529995E0,1.0546534E0,3.5094774E0,-9.6882886E-1,-2.189153E-2],"categories":[],"categories_nodes":[],"categories_segments":[],"categories_sizes":[],"default_left":[1,1,1,1,1,1,1,1,1,1,1,1,1,1,1,0,0,0,0,0,0,1,1,0,0,0,0,0,0,0,0],"id":39,"left_children":[1,3,5,7,9,11,13,15,17,19,-1,23,25,27,29,-1,-1,-1,-1,-1,-1,-1,-1,-1,-1,-1,-1,-1,-1,-1,-1],"loss_changes":[2.1635918E1,1.2595534E1,3.0531643E1,5.9771233E0,9.851612E0,1.0601393E2,1.0872189E2,1.9332863E1,1.3894417E1,7.2370887E0,5.4738045E-2,4.829097E1,7.165219E1,3.327749E1,4.8628807E1,0E0,0E0,0E0,0E0,0E0,0E0,0E0,0E0,0E0,0E0,0E0,0E0,0E0,0E0,0E0,0E0],"parents":[2147483647,0,0,1,1,2,2,3,3,4,4,5,5,6,6,7,7,8,8,9,9,10,10,11,11,12,12,13,13,14,14],"right_children":[2,4,6,8,10,12,14,16,18,20,-1,24,26,28,30,-1,-1,-1,-1,-1,-1,-1,-1,-1,-1,-1,-1,-1,-1,-1,-1],"split_conditions":[7.75E0,1E0,1.305E1,7.05E0,7.25E0,1.195E1,1.365E1,6.95E0,7.55E0,2.5E0,1.9916514E-1,1.125E1,1.215E1,1.355E1,1.545E1,1.1808153E-1,5.9346044E-1,-1.4545277E-1,3.1112888E-1,-1.8034096E-1,4.6606913E-2,2.5383568E-1,1.0837097E-1,-6.396821E-2,2.8299266E-1,-9.7656876E-1,-2.5539872E-1,2.1496984E-1,7.1533626E-1,-1.9747624E-1,-4.4621476E-3],"split_indices":[2,0,2,2,2,2,2,2,2,0,2,2,2,2,2,0,0,0,0,0,0,2147483647,2147483647,0,0,0,0,0,0,0,0],"split_type":[0,0,0,0,0,0,0,0,0,0,0,0,0,0,0,0,0,0,0,0,0,0,0,0,0,0,0,0,0,0,0],"sum_hessian":[7.27E2,8.5E1,6.42E2,5.7E1,2.8E1,1.64E2,4.78E2,4.6E1,1.1E1,2.3E1,5E0,1.18E2,4.6E1,2.6E1,4.52E2,4.3E1,3E0,8E0,3E0,1.4E1,9E0,2E0,3E0,9.9E1,1.9E1,6E0,4E1,1.8E1,8E0,6.2E1,3.9E2],"tree_param":{"num_deleted":"2","num_feature":"5","num_nodes":"31","size_leaf_vector":"0"}},{"base_weights":[3.8469203E-2,-1.1545157E-2,6.291922E-1,2.0921703E-2,-1.3480525E0,1.9919709E0,2.2151853E-1,8.207456E-3,4.1934485E0,-2.111239E0,-5.1988083E-1,7.044844E-1,4.712694E0,-2.843962E0,5.8995473E-1,5.270656E-1,-5.644246E-2,-2.9938295E0,-9.8291874E-1,1.05515E0,-1.1206254E0,1.5799807E0,-1.0037552E0,-3.2005546E0,-7.0879555E-1,1.0473832E0,5.7285715E-2],"categories":[],"categories_nodes":[],"categories_segments":[],"categories_sizes":[],"default_left":[0,0,1,0,0,1,0,0,0,1,0,1,0,1,0,0,0,0,0,0,0,0,0,0,0,0,0],"id":40,"left_children":[1,3,5,7,9,11,13,15,-1,17,19,21,-1,23,25,-1,-1,-1,-1,-1,-1,-1,-1,-1,-1,-1,-1],"loss_changes":[2.1574846E1,2.9274544E1,3.1226175E1,3.4925888E1,9.015196E0,4.221761E1,5.2502335E1,2.2101788E1,0E0,5.024067E0,9.698149E0,1.6541489E1,0E0,1.5383835E0,9.9299755E0,0E0,0E0,0E0,0E0,0E0,0E0,0E0,0E0,0E0,0E0,0E0,0E0],"parents":[2147483647,0,0,1,1,2,2,3,3,4,4,5,5,6,6,7,7,9,9,10,10,11,11,13,13,14,14],"right_children":[2,4,6,8,10,12,14,16,-1,18,20,22,-1,24,26,-1,-1,-1,-1,-1,-1,-1,-1,-1,-1,-1,-1],"split_conditions":[3.215E1,3.06E1,3.405E1,3.025E1,3.11E1,3.375E1,3.505E1,6.25E0,8.5475004E-1,3.085E1,3.13E1,3.345E1,9.6058774E-1,3.99E1,4.655E1,1.074317E-1,-1.15046585E-2,-6.102318E-1,-2.0034818E-1,2.1507108E-1,-2.284169E-1,3.2204723E-1,-2.0459528E-1,-6.523686E-1,-1.4447369E-1,2.1348797E-1,1.1676539E-2],"split_indices":[3,3,3,3,3,3,3,3,0,4,3,3,0,4,3,0,0,0,0,0,0,0,0,0,0,0,0],"split_type":[0,0,0,0,0,0,0,0,0,0,0,0,0,0,0,0,0,0,0,0,0,0,0,0,0,0,0],"sum_hessian":[7.29E2,6.73E2,5.6E1,6.58E2,1.5E1,1.2E1,4.4E1,6.57E2,1E0,7E0,8E0,9E0,3E0,4E0,4E1,7.2E1,5.85E2,3E0,4E0,2E0,6E0,6E0,3E0,3E0,1E0,2.1E1,1.9E1],"tree_param":{"num_deleted":"0","num_feature":"5","num_nodes":"27","size_leaf_vector":"0"}},{"base_weights":[4.8419513E-2,1.90687E-2,8.162697E-1,5.3207155E-2,-9.560942E-1,3.7868042E0,4.2715478E-1,2.639029E-2,6.1407776E0,-2.0506403E0,-2.8065616E-1,5.199129E0,4.810772E-1,9.989206E-1,-1.774691E-1,6.0438834E-2,-9.532827E-1,-2.4733083E0,6.6535187E-1,8.4894454E-1,-1.043311E0,-2.191201E-1,2.0742583E0,-1.338562E0,4.873013E-1],"categories":[],"categories_nodes":[],"categories_segments":[],"categories_sizes":[],"default_left":[0,0,0,0,0,0,1,0,0,1,0,0,0,1,1,0,0,0,0,0,0,0,0,0,0],"id":41,"left_children":[1,3,5,7,9,11,13,15,-1,17,19,-1,-1,21,23,-1,-1,-1,-1,-1,-1,-1,-1,-1,-1],"loss_changes":[1.6526611E1,2.3620583E1,2.959119E1,1.1166388E2,1.7167627E1,1.15051E1,8.81986E0,2.2840063E1,0E0,1.1977291E1,1.4669641E1,0E0,0E0,1.748198E1,1.0686465E1,0E0,0E0,0E0,0E0,0E0,0E0,0E0,0E0,0E0,0E0],"parents":[2147483647,0,0,1,1,2,2,3,3,4,4,5,5,6,6,7,7,9,9,10,10,13,13,14,14],"right_children":[2,4,6,8,10,12,14,16,-1,18,20,-1,-1,22,24,-1,-1,-1,-1,-1,-1,-1,-1,-1,-1],"split_conditions":[4.105E1,3.405E1,4.3699997E1,3.375E1,3.545E1,5E-1,3.74E1,2.9849998E1,1.2516738E0,4.525E1,3.785E1,1.0597377E0,9.8057896E-2,2.2599998E1,3.8800003E1,1.2319239E-2,-1.9430748E-1,-5.0413406E-1,1.3561857E-1,1.7304024E-1,-2.1265793E-1,-4.4663217E-2,4.2279577E-1,-2.728389E-1,9.932655E-2],"split_indices":[3,3,3,3,3,1,4,3,0,4,3,0,0,4,4,0,0,0,0,0,0,0,0,0,0],"split_type":[0,0,0,0,0,0,0,0,0,0,0,0,0,0,0,0,0,0,0,0,0,0,0,0,0],"sum_hessian":[7.33E2,7.07E2,2.6E1,6.84E2,2.3E1,2E0,2.4E1,6.82E2,2E0,8E0,1.5E1,1E0,1E0,1.2E1,1.2E1,6.6E2,2.2E1,7E0,1E0,6E0,9E0,6E0,6E0,4E0,8E0],"tree_param":{"num_deleted":"0","num_feature":"5","num_nodes":"25","size_leaf_vector":"0"}},{"base_weights":[-2.5150117E-2,-4.472214E-2,1.3806789E0,-3.3295172E-1,3.4710027E-2,1.7287233E0,-8.758602E-1,2.5241193E-1,-1.0112517E0,3.7313962E-1,-1.7387757E-1,2.137314E0,6.836562E-1,-4.5978135E-1,1.0859627E0,-7.457328E-1,-3.0421865E0,1.5356332E-1,1.3601105E0,-1.290254E0,-2.1079885E-2,2.8112302E0,5.263214E-1,-5.254078E-2,9.465688E-1],"categories":[],"categories_nodes":[],"categories_segments":[],"categories_sizes":[],"default_left":[1,1,0,0,1,0,0,0,0,1,1,1,0,0,0,0,0,0,0,0,0,0,0,0,0],"id":42,"left_children":[1,3,5,7,9,11,-1,13,15,17,19,21,23,-1,-1,-1,-1,-1,-1,-1,-1,-1,-1,-1,-1],"loss_changes":[2.0037579E1,1.642706E1,9.367876E0,6.179834E1,3.9808296E1,2.381855E0,0E0,5.0365845E1,3.6557457E1,4.6384945E1,5.9505127E1,5.0344334E0,8.239553E-1,0E0,0E0,0E0,0E0,0E0,0E0,0E0,0E0,0E0,0E0,0E0,0E0],"parents":[2147483647,0,0,1,1,2,2,3,3,4,4,5,5,7,7,8,8,9,9,10,10,11,11,12,12],"right_children":[2,4,6,8,10,12,-1,14,16,18,20,22,24,-1,-1,-1,-1,-1,-1,-1,-1,-1,-1,-1,-1],"split_conditions":[4.85E1,1.775E1,3.7699997E1,8.05E0,2.695E1,2.92E1,-1.7852646E-1,5.7E0,5E-1,2.48E1,2.85E1,5.025E1,3.135E1,-9.3717165E-2,2.2135161E-1,-1.520026E-1,-6.2008846E-1,3.130079E-2,2.7723113E-1,-2.629923E-1,-4.29671E-3,5.7301265E-1,1.07280016E-1,-1.070938E-2,1.9293898E-1],"split_indices":[4,4,3,3,4,3,0,3,1,4,4,4,3,0,0,0,0,0,0,0,0,0,0,0,0],"split_type":[0,0,0,0,0,0,0,0,0,0,0,0,0,0,0,0,0,0,0,0,0,0,0,0,0],"sum_hessian":[7.25E2,7.16E2,9E0,1.54E2,5.62E2,8E0,1E0,8.3E1,7.1E1,2.14E2,3.48E2,5E0,3E0,4.5E1,3.8E1,6.4E1,7E0,1.76E2,3.8E1,4.1E1,3.07E2,3E0,2E0,1E0,2E0],"tree_param":{"num_deleted":"0","num_feature":"5","num_nodes":"25","size_leaf_vector":"0"}},{"base_weights":[3.600214E-2,-1.9806236E-1,1.644904E-1,-7.135836E-2,-1.7276129E0,1.1965278E0,4.354095E-2,-1.4636566E-1,1.8950943E0,-2.7477055E0,-1.0941657E0,1.9443877E-1,2.4630759E0,-2.9095542E0,9.9553354E-2,-3.7269522E-3,-6.740543E-1,3.9458299E0,-5.3466016E-1,-3.3425357E0,-8.4041977E-1,3.7014003E0,-1.7477785E0,9.9502605E-1,-2.4638393E0,5.5426564E0,-1.7866863E0,-3.511326E0,6.5142393E-1,1.6757607E0,5.317764E-2],"categories":[],"categories_nodes":[],"categories_segments":[],"categories_sizes":[],"default_left":[0,0,1,1,1,1,0,1,1,0,1,1,1,1,0,0,0,0,0,0,0,0,0,0,0,0,0,0,0,0,0],"id":43,"left_children":[1,3,5,7,9,11,13,15,17,19,21,23,25,27,29,-1,-1,-1,-1,-1,-1,-1,-1,-1,-1,-1,-1,-1,-1,-1,-1],"loss_changes":[2.2227589E1,5.0652367E1,5.9489124E1,3.6119465E1,9.917042E0,6.298078E1,7.108512E1,1.7685665E1,4.6954727E1,5.1324463E0,5.0351433E1,6.41689E1,2.9782764E2,1.9430534E1,3.0685038E1,0E0,0E0,0E0,0E0,0E0,0E0,0E0,0E0,0E0,0E0,0E0,0E0,0E0,0E0,0E0,0E0],"parents":[2147483647,0,0,1,1,2,2,3,3,4,4,5,5,6,6,7,7,8,8,9,9,10,10,11,11,12,12,13,13,14,14],"right_children":[2,4,6,8,10,12,14,16,18,20,22,24,26,28,30,-1,-1,-1,-1,-1,-1,-1,-1,-1,-1,-1,-1,-1,-1,-1,-1],"split_conditions":[1.225E1,1.1549999E1,1.3299999E1,3.345E1,2E1,1.285E1,1.365E1,2.27E1,3.5550003E1,1.2E1,2.13E1,1.255E1,3.035E1,3.1E1,1.405E1,-7.596641E-4,-1.373924E-1,8.0427796E-1,-1.089797E-1,-6.8130857E-1,-1.7130265E-1,7.5445586E-1,-3.5624945E-1,2.0281601E-1,-5.02204E-1,1.1297588E0,-3.6418E-1,-7.157131E-1,1.3277964E-1,3.4157008E-1,1.083919E-2],"split_indices":[3,3,3,4,4,3,3,4,4,3,4,3,4,4,3,0,0,0,0,0,0,0,0,0,0,0,0,0,0,0,0],"split_type":[0,0,0,0,0,0,0,0,0,0,0,0,0,0,0,0,0,0,0,0,0,0,0,0,0,0,0,0,0,0,0],"sum_hessian":[7.37E2,2.61E2,4.76E2,2.42E2,1.9E1,4.9E1,4.27E2,2.34E2,8E0,6E0,1.3E1,2.8E1,2.1E1,7E0,4.2E2,1.85E2,4.9E1,4E0,4E0,4E0,2E0,1E0,1.2E1,2.2E1,6E0,1.2E1,9E0,6E0,1E0,1.1E1,4.09E2],"tree_param":{"num_deleted":"0","num_feature":"5","num_nodes":"31","size_leaf_vector":"0"}},{"base_weights":[-3.08884E-2,-1.673519E-1,1.1824042E-1,1.4678761E-1,-3.6137494E-1,5.1331096E0,3.6045415E-3,1.3035879E-2,4.0229807E0,-6.6518605E-1,9.9633254E-2,3.4252867E-1,6.6728816E0,-3.5727245E-1,1.528685E-1,6.952664E-2,-2.7028658E0,-1.2861829E0,5.671818E0,-3.6589372E0,-5.767931E-1,1.920707E0,6.5473845E-4,-9.856863E-1,1.4994793E0,7.2839804E0,1.8086948E0,3.4083885E-1,-8.8367474E-1,3.1221613E-1,-1.0207763E0],"categories":[],"categories_nodes":[],"categories_segments":[],"categories_sizes":[],"default_left":[1,0,1,0,0,0,0,0,0,0,0,0,0,0,0,0,0,0,0,0,0,0,0,0,0,0,0,0,0,0,0],"id":44,"left_children":[1,3,5,7,9,11,13,15,17,19,21,23,25,27,29,-1,-1,-1,-1,-1,-1,-1,-1,-1,-1,-1,-1,-1,-1,-1,-1],"loss_changes":[1.5242067E1,2.3884617E1,2.0578995E2,7.771469E1,3.3960655E1,5.672557E1,1.8961557E1,2.258773E1,5.1064713E1,3.652501E1,1.7482718E1,6.088053E0,4.660492E0,3.815239E1,4.6886063E1,0E0,0E0,0E0,0E0,0E0,0E0,0E0,0E0,0E0,0E0,0E0,0E0,0E0,0E0,0E0,0E0],"parents":[2147483647,0,0,1,1,2,2,3,3,4,4,5,5,6,6,7,7,8,8,9,9,10,10,11,11,12,12,13,13,14,14],"right_children":[2,4,6,8,10,12,14,16,18,20,22,24,26,28,30,-1,-1,-1,-1,-1,-1,-1,-1,-1,-1,-1,-1,-1,-1,-1,-1],"split_conditions":[5E-1,1.295E1,1.5E0,1.285E1,5E-1,8.35E0,1.005E1,1.2700001E1,5E-1,1.31E1,1.34E1,5.95E0,2.6400002E1,6.3E0,5E-1,1.4171605E-2,-5.509248E-1,-2.6216248E-1,1.1560858E0,-7.458006E-1,-1.1756765E-1,3.9149743E-1,1.3345525E-4,-2.009123E-1,3.0563864E-1,1.4846927E0,3.68666E-1,6.947313E-2,-1.8011929E-1,6.363897E-2,-2.0806468E-1],"split_indices":[0,3,0,3,1,3,3,3,1,3,3,3,3,3,1,0,0,0,0,0,0,0,0,0,0,0,0,0,0,0,0],"split_type":[0,0,0,0,0,0,0,0,0,0,0,0,0,0,0,0,0,0,0,0,0,0,0,0,0,0,0,0,0,0,0],"sum_hessian":[7.47E2,3.9E2,3.57E2,1.49E2,2.41E2,7E0,3.5E2,1.45E2,4E0,1.45E2,9.6E1,2E0,5E0,1.02E2,2.48E2,1.43E2,2E0,1E0,3E0,3E0,1.42E2,4E0,9.2E1,1E0,1E0,4E0,1E0,4.4E1,5.8E1,2.19E2,2.9E1],"tree_param":{"num_deleted":"0","num_feature":"5","num_nodes":"31","size_leaf_vector":"0"}},{"base_weights":[1.4071942E-2,-3.1945296E-2,5.269296E-1,4.481303E-2,-5.1384056E-1,1.8559948E0,3.163739E-1,-2.914692E-2,3.5356863E0,9.900982E-2,-1.5622033E0,6.732975E-1,2.8703678E0,-2.0395384E0,6.042718E-1,-2.9391775E-1,2.2656313E-1,4.71206E0,4.9238205E-3,-1.1780094E-1,4.185411E0,-2.7941632E0,-4.4254223E-1,-2.7625275E-1,1.3984152E0,1.1584744E0,-2.9108357E0,4.719009E0,3.2278305E-1],"categories":[],"categories_nodes":[],"categories_segments":[],"categories_sizes":[],"default_left":[1,1,0,1,1,1,0,1,0,1,0,1,0,1,0,0,0,0,0,0,0,0,0,0,0,0,0,0,0],"id":45,"left_children":[1,3,5,7,9,11,13,15,17,19,21,23,-1,25,27,-1,-1,-1,-1,-1,-1,-1,-1,-1,-1,-1,-1,-1,-1],"loss_changes":[1.7197847E1,2.4768984E1,1.6203344E1,1.4933386E2,5.926371E1,7.664957E0,3.7180336E1,3.845508E1,4.981874E1,5.2765617E1,4.5662292E1,3.8289945E0,0E0,2.0090652E1,5.407289E1,0E0,0E0,0E0,0E0,0E0,0E0,0E0,0E0,0E0,0E0,0E0,0E0,0E0,0E0],"parents":[2147483647,0,0,1,1,2,2,3,3,4,4,5,5,6,6,7,7,8,8,9,9,10,10,11,11,13,13,14,14],"right_children":[2,4,6,8,10,12,14,16,18,20,22,24,-1,26,28,-1,-1,-1,-1,-1,-1,-1,-1,-1,-1,-1,-1,-1,-1],"split_conditions":[4.045E1,3.565E1,1.67E1,3.515E1,2.6900002E1,4.485E1,1.725E1,5E-1,2.815E1,2.645E1,3.6199997E1,1.5E0,5.850666E-1,4.2699997E1,1.7599998E1,-5.990921E-2,4.618033E-2,9.604585E-1,1.0036216E-3,-2.401135E-2,8.531117E-1,-5.695339E-1,-9.0203315E-2,-5.6308556E-2,2.8503877E-1,2.3613168E-1,-5.9331524E-1,9.618749E-1,6.579282E-2],"split_indices":[4,4,3,4,3,4,3,0,3,3,3,0,0,4,3,0,0,0,0,0,0,0,0,0,0,0,0,0,0],"split_type":[0,0,0,0,0,0,0,0,0,0,0,0,0,0,0,0,0,0,0,0,0,0,0,0,0,0,0,0,0],"sum_hessian":[7.27E2,6.68E2,5.9E1,5.77E2,9.1E1,7E0,5.2E1,5.66E2,1.1E1,5.8E1,3.3E1,4E0,3E0,5E0,4.7E1,2.78E2,2.88E2,8E0,3E0,5.6E1,2E0,1.5E1,1.8E1,2E0,2E0,1E0,4E0,2E0,4.5E1],"tree_param":{"num_deleted":"0","num_feature":"5","num_nodes":"29","size_leaf_vector":"0"}},{"base_weights":[1.744935E-2,-7.941537E-2,2.681563E-1,-3.964235E-1,1.4491744E-1,3.0601487E0,1.5223785E-1,-4.903438E-2,-1.1568933E0,4.5260444E0,4.2549323E-2,1.0123478E0,6.1357007E0,-1.07314445E-1,5.8748025E-1,-1.5522955E-1,3.8658967E0,-1.8346009E0,8.214787E-2,1.9994672E-1,6.216494E0,-8.6914045E-1,1.696813E-1,1.3291231E-1,2.7047627E0,1.4382553E-1,9.059726E0,-4.061688E-3,-1.158246E0,3.9706135E0,4.362566E-1],"categories":[],"categories_nodes":[],"categories_segments":[],"categories_sizes":[],"default_left":[1,1,0,0,1,1,0,0,0,0,0,0,0,0,0,0,0,0,0,0,0,0,0,0,0,0,0,0,0,0,0],"id":46,"left_children":[1,3,5,7,9,11,13,15,17,19,21,23,25,27,29,-1,-1,-1,-1,-1,-1,-1,-1,-1,-1,-1,-1,-1,-1,-1,-1],"loss_changes":[1.7603388E1,3.7250763E1,6.4910095E1,5.72701E1,1.3749315E2,4.4173485E1,2.2091835E1,6.2962116E1,5.7250824E1,4.994838E1,3.5034855E1,8.570723E0,5.125815E1,1.3342219E1,3.561531E1,0E0,0E0,0E0,0E0,0E0,0E0,0E0,0E0,0E0,0E0,0E0,0E0,0E0,0E0,0E0,0E0],"parents":[2147483647,0,0,1,1,2,2,3,3,4,4,5,5,6,6,7,7,8,8,9,9,10,10,11,11,12,12,13,13,14,14],"right_children":[2,4,6,8,10,12,14,16,18,20,22,24,26,28,30,-1,-1,-1,-1,-1,-1,-1,-1,-1,-1,-1,-1,-1,-1,-1,-1],"split_conditions":[5E-1,5E-1,6.15E0,1.97E1,1.5E0,1E0,1.955E1,1.945E1,2.555E1,1.295E1,5.7E0,5.9E0,4.75E0,1.805E1,1.9650002E1,-3.1640418E-2,7.8798515E-1,-3.7394643E-1,1.6744187E-2,4.075511E-2,1.2671071E0,-1.7715678E-1,3.4586113E-2,2.7091496E-2,5.513114E-1,2.9315937E-2,1.8466426E0,-8.278933E-4,-2.3608512E-1,8.0932957E-1,8.892211E-2],"split_indices":[1,0,3,3,0,0,3,3,3,3,3,3,3,3,3,0,0,0,0,0,0,0,0,0,0,0,0,0,0,0,0],"split_type":[0,0,0,0,0,0,0,0,0,0,0,0,0,0,0,0,0,0,0,0,0,0,0,0,0,0,0,0,0,0,0],"sum_hessian":[7.23E2,5.22E2,2.01E2,2.16E2,3.06E2,7E0,1.94E2,1.49E2,6.7E1,6E0,3E2,5E0,2E0,1.22E2,7.2E1,1.46E2,3E0,4.3E1,2.4E1,2E0,4E0,3.6E1,2.64E2,4E0,1E0,1E0,1E0,1.12E2,1E1,2E0,7E1],"tree_param":{"num_deleted":"0","num_feature":"5","num_nodes":"31","size_leaf_vector":"0"}},{"base_weights":[-8.0324267E-4,1.0711351E-1,-2.0955695E-1,1.8171899E-2,1.6321054E0,-3.039002E0,-1.2545748E-1,8.854554E-2,-1.4136242E0,6.966283E0,6.334612E-1,-4.2715106E0,2.8179487E-2,-5.8523846E-1,6.960147E-2,3.724145E-2,2.224202E0,-2.2903426E0,1.8499434E0,-7.3244184E-1,1.2768214E0,-9.303696E-2,-2.416588E0,3.1189573E0,-4.7441325E-3],"categories":[],"categories_nodes":[],"categories_segments":[],"categories_sizes":[],"default_left":[1,1,1,1,0,0,0,1,1,0,0,0,0,1,1,0,0,0,0,0,0,0,0,0,0],"id":47,"left_children":[1,3,5,7,9,11,13,15,17,-1,19,-1,-1,21,23,-1,-1,-1,-1,-1,-1,-1,-1,-1,-1],"loss_changes":[1.6129982E1,6.3990173E1,5.767971E1,4.5165203E1,1.340877E2,2.6582657E1,2.138562E1,4.6702663E1,6.432283E1,0E0,2.1146854E1,0E0,0E0,6.377408E1,3.810144E1,0E0,0E0,0E0,0E0,0E0,0E0,0E0,0E0,0E0,0E0],"parents":[2147483647,0,0,1,1,2,2,3,3,4,4,5,5,6,6,7,7,8,8,10,10,13,13,14,14],"right_children":[2,4,6,8,10,12,14,16,18,-1,20,-1,-1,22,24,-1,-1,-1,-1,-1,-1,-1,-1,-1,-1],"split_conditions":[1.925E1,1.845E1,1.9349998E1,1.805E1,1.585E1,1.81E1,2.2150002E1,1.7650002E1,3.5E0,1.4199364E0,1.815E1,-8.706614E-1,5.7438207E-3,2.175E1,1.965E1,7.5909197E-3,4.5335874E-1,-4.668402E-1,3.770737E-1,-1.4929351E-1,2.6025432E-1,-1.896371E-2,-4.9257278E-1,6.357366E-1,-9.6699584E-4],"split_indices":[2,2,2,2,3,3,3,2,0,0,3,0,0,2,2,0,0,0,0,0,0,0,0,0,0],"split_type":[0,0,0,0,0,0,0,0,0,0,0,0,0,0,0,0,0,0,0,0,0,0,0,0,0],"sum_hessian":[7.14E2,4.71E2,2.43E2,4.46E2,2.5E1,6E0,2.37E2,4.26E2,2E1,3E0,2.2E1,4E0,2E0,7E1,1.67E2,4.17E2,9E0,1.6E1,4E0,7E0,1.5E1,5.6E1,1.4E1,3E0,1.64E2],"tree_param":{"num_deleted":"0","num_feature":"5","num_nodes":"25","size_leaf_vector":"0"}},{"base_weights":[1.5575906E-3,2.0936532E-1,-1.4729436E-1,-1.7316961E-1,4.8235223E-1,-4.0811844E0,-1.0077618E-1,-2.6136172E-1,2.6481748E0,9.897532E-1,1.42763E-1,-1.6080245E0,-5.1939497E0,-9.5261985E-1,-2.9173087E-2,4.1112423E-2,-1.0810304E0,-3.4591165E-1,5.815217E0,2.7813497E0,4.282016E-1,-1.9681046E0,5.54207E-1,-2.4807093E0,6.867266E-2,2.3801122E0,-1.1311462E0,1.6922569E0,-1.3062695E-1],"categories":[],"categories_nodes":[],"categories_segments":[],"categories_sizes":[],"default_left":[1,1,1,1,1,1,1,1,1,1,1,0,0,1,1,0,0,0,0,0,0,0,0,0,0,0,0,0,0],"id":48,"left_children":[1,3,5,7,9,11,13,15,17,19,21,23,-1,25,27,-1,-1,-1,-1,-1,-1,-1,-1,-1,-1,-1,-1,-1,-1],"loss_changes":[2.2828156E1,3.2247055E1,7.82776E1,3.278996E1,3.0874119E1,5.4082336E0,2.5955927E1,3.1283443E1,3.9941143E1,7.1246346E1,9.575766E1,4.5600414E0,0E0,2.2326616E1,6.903146E1,0E0,0E0,0E0,0E0,0E0,0E0,0E0,0E0,0E0,0E0,0E0,0E0,0E0,0E0],"parents":[2147483647,0,0,1,1,2,2,3,3,4,4,5,5,6,6,7,7,8,8,9,9,10,10,11,11,13,13,14,14],"right_children":[2,4,6,8,10,12,14,16,18,20,22,24,-1,26,28,-1,-1,-1,-1,-1,-1,-1,-1,-1,-1,-1,-1,-1,-1],"split_conditions":[1.435E1,9.25E0,1.445E1,3.3E1,1.185E1,2.475E1,1.8599998E1,8.15E0,8.65E0,1.535E1,1.225E1,5E-1,-1.058682E0,6.75E0,2.045E1,8.379939E-3,-2.2034626E-1,-7.0507124E-2,1.1853149E0,5.6692207E-1,8.7280266E-2,-4.0115848E-1,1.1296394E-1,-5.056426E-1,1.3997538E-2,4.851379E-1,-2.3056136E-1,3.449325E-1,-2.6625672E-2],"split_indices":[2,2,2,4,2,4,4,2,2,4,2,1,0,4,4,0,0,0,0,0,0,0,0,0,0,0,0,0,0],"split_type":[0,0,0,0,0,0,0,0,0,0,0,0,0,0,0,0,0,0,0,0,0,0,0,0,0,0,0,0,0],"sum_hessian":[7.36E2,3.07E2,4.29E2,1.28E2,1.79E2,4E0,4.25E2,1.25E2,3E0,7.1E1,1.08E2,2E0,2E0,3.2E1,3.93E2,9.2E1,3.3E1,2E0,1E0,1.6E1,5.5E1,1.7E1,9.1E1,1E0,1E0,1E0,3.1E1,2.1E1,3.72E2],"tree_param":{"num_deleted":"0","num_feature":"5","num_nodes":"29","size_leaf_vector":"0"}},{"base_weights":[7.604589E-2,4.8216004E-2,8.741462E-1,7.875313E-2,-7.358588E-1,3.9374397E0,2.4903572E-1,5.450004E-2,5.4205194E0,-1.4829123E0,-3.2145098E-1,5.006482E0,3.6515617E-1,-1.6038164E-1,8.1274575E-1,1.5909617E-1,-1.7557175E-1,-1.7365156E0,-3.9686713E-1,5.946021E-1,-9.584486E-1,3.6610317E-1,-5.3519756E-1],"categories":[],"categories_nodes":[],"categories_segments":[],"categories_sizes":[],"default_left":[0,0,0,0,0,0,0,1,0,1,1,0,0,0,0,0,0,0,0,0,0,0,0],"id":49,"left_children":[1,3,5,7,9,11,13,15,-1,17,19,-1,-1,21,-1,-1,-1,-1,-1,-1,-1,-1,-1],"loss_changes":[1.5816536E1,1.6602837E1,4.4976963E1,8.598778E1,7.572521E0,1.344754E1,4.9769955E0,1.600684E1,0E0,1.7896557E0,1.107332E1,0E0,0E0,2.7612913E0,0E0,0E0,0E0,0E0,0E0,0E0,0E0,0E0,0E0],"parents":[2147483647,0,0,1,1,2,2,3,3,4,4,5,5,6,6,7,7,9,9,10,10,13,13],"right_children":[2,4,6,8,10,12,14,16,-1,18,20,-1,-1,22,-1,-1,-1,-1,-1,-1,-1,-1,-1],"split_conditions":[4.325E1,3.405E1,4.655E1,3.375E1,3.5550003E1,5E-1,5.19E1,2.5E0,1.1048636E0,2.5E0,2.5E0,1.0204705E0,7.442973E-2,4.78E1,1.6566184E-1,3.2428548E-2,-3.5786767E-2,-3.5395372E-1,-8.089337E-2,1.2119766E-1,-1.9536044E-1,7.462276E-2,-1.0908924E-1],"split_indices":[3,3,3,3,3,1,3,0,0,0,0,0,0,3,0,0,0,0,0,0,0,0,0],"split_type":[0,0,0,0,0,0,0,0,0,0,0,0,0,0,0,0,0,0,0,0,0,0,0],"sum_hessian":[7.13E2,6.9E2,2.3E1,6.65E2,2.5E1,3E0,2E1,6.63E2,2E0,8E0,1.7E1,2E0,1E0,1.2E1,8E0,4.56E2,2.07E2,6E0,2E0,7E0,1E1,5E0,7E0],"tree_param":{"num_deleted":"0","num_feature":"5","num_nodes":"23","size_leaf_vector":"0"}},{"base_weights":[-9.482518E-3,-2.210413E-1,1.328604E-1,-1.5709542E-1,-9.732211E-1,8.5115457E-1,-7.287328E-4,-2.0044355E-1,1.3092856E0,6.660292E-2,-1.7782091E0,5.5633736E-1,3.8540125E0,-8.268851E-1,1.01298794E-1,-1.5477435E-1,-1.6596367E0,1.4791242E0,6.0207844E-2,9.178021E-1,-3.6732203E-1,-3.5148983E0,-1.3405768E0,8.6769754E-1,-3.6421962E-2,-4.272433E-1,-5.7466E0,3.9861064E0,4.177033E-2],"categories":[],"categories_nodes":[],"categories_segments":[],"categories_sizes":[],"default_left":[1,1,1,1,1,1,1,1,1,1,1,1,0,1,1,0,0,0,0,0,0,0,0,0,0,0,0,0,0],"id":50,"left_children":[1,3,5,7,9,11,13,15,17,19,21,23,-1,25,27,-1,-1,-1,-1,-1,-1,-1,-1,-1,-1,-1,-1,-1,-1],"loss_changes":[2.2163082E1,1.408436E1,4.2221394E1,1.7679216E1,1.9370487E1,5.8941174E1,3.1439898E1,1.7536057E1,1.608077E0,4.400051E0,5.168415E0,1.1843546E1,0E0,7.8155876E1,7.66107E1,0E0,0E0,0E0,0E0,0E0,0E0,0E0,0E0,0E0,0E0,0E0,0E0,0E0,0E0],"parents":[2147483647,0,0,1,1,2,2,3,3,4,4,5,5,6,6,7,7,8,8,9,9,10,10,11,11,13,13,14,14],"right_children":[2,4,6,8,10,12,14,16,18,20,22,24,-1,26,28,-1,-1,-1,-1,-1,-1,-1,-1,-1,-1,-1,-1,-1,-1],"split_conditions":[2.355E1,2.25E1,2.695E1,2.195E1,1E0,2.655E1,2.845E1,2.145E1,2.2349998E1,2.31E1,2.275E1,2.5E0,7.855628E-1,2.825E1,2.8650002E1,-3.1547632E-2,-3.382835E-1,3.0148968E-1,1.2272156E-2,1.8707547E-1,-7.48712E-2,-7.164412E-1,-2.7324957E-1,1.7686266E-1,-7.4238833E-3,-8.708494E-2,-1.1713287E0,8.124875E-1,8.51404E-3],"split_indices":[4,4,4,4,0,4,4,4,4,4,4,0,0,4,4,0,0,0,0,0,0,0,0,0,0,0,0,0,0],"split_type":[0,0,0,0,0,0,0,0,0,0,0,0,0,0,0,0,0,0,0,0,0,0,0,0,0,0,0,0,0],"sum_hessian":[7.34E2,2.95E2,4.39E2,2.73E2,2.2E1,6.8E1,3.71E2,2.66E2,7E0,1E1,1.2E1,6.3E1,5E0,4E1,3.31E2,2.59E2,7E0,6E0,1E0,3E0,7E0,1E0,1.1E1,4.1E1,2.2E1,3.8E1,2E0,4E0,3.27E2],"tree_param":{"num_deleted":"0","num_feature":"5","num_nodes":"29","size_leaf_vector":"0"}},{"base_weights":[4.4356816E-2,-2.800421E-2,2.9150525E-1,8.023587E-2,-3.7480327E-1,2.4743404E0,1.0654807E-1,-3.338449E-2,2.121914E0,-1.6852685E0,-1.4758867E-1,3.7433403E0,-1.3167443E0,-1.8977622E0,2.578644E-1,-6.104658E-4,-1.9388727E0,3.567049E0,7.35883E-1,1.0153986E0,-2.4238977E0,1.6627176E0,-3.1384304E-1,1.0350124E0,6.2446656E0,-2.314436E0,8.381653E-1,-2.4841642E-1,-2.0378551E0,4.8689097E-1,-7.610997E-1],"categories":[],"categories_nodes":[],"categories_segments":[],"categories_sizes":[],"default_left":[1,1,1,1,1,1,1,1,1,1,1,1,1,1,1,0,0,0,0,0,0,0,0,0,0,0,0,0,0,0,0],"id":51,"left_children":[1,3,5,7,9,11,13,15,17,19,21,23,25,27,29,-1,-1,-1,-1,-1,-1,-1,-1,-1,-1,-1,-1,-1,-1,-1,-1],"loss_changes":[1.3188607E1,2.146402E1,6.715944E1,1.01212456E2,4.02462E1,6.7470535E1,4.7498512E1,2.5853333E1,4.3444122E1,4.2357056E1,3.5735477E1,6.1280777E1,1.0539621E1,2.0354424E0,3.42092E1,0E0,0E0,0E0,0E0,0E0,0E0,0E0,0E0,0E0,0E0,0E0,0E0,0E0,0E0,0E0,0E0],"parents":[2147483647,0,0,1,1,2,2,3,3,4,4,5,5,6,6,7,7,8,8,9,9,10,10,11,11,12,12,13,13,14,14],"right_children":[2,4,6,8,10,12,14,16,18,20,22,24,26,28,30,-1,-1,-1,-1,-1,-1,-1,-1,-1,-1,-1,-1,-1,-1,-1,-1],"split_conditions":[3.515E1,2.98E1,3.565E1,2.845E1,3.045E1,2.225E1,3.625E1,2.8150002E1,2.895E1,1.26E1,1.1950001E1,1.9150002E1,2.815E1,1.545E1,2.8849998E1,-1.2443116E-4,-3.9520013E-1,7.270711E-1,1.4999492E-1,2.0696856E-1,-4.9406272E-1,3.3891147E-1,-6.397058E-2,2.1096642E-1,1.2728493E0,-4.7175115E-1,1.7084311E-1,-5.0634682E-2,-4.153757E-1,9.924292E-2,-1.5513484E-1],"split_indices":[4,4,4,4,4,2,4,4,4,2,2,2,2,2,2,0,0,0,0,0,0,0,0,0,0,0,0,0,0,0,0],"split_type":[0,0,0,0,0,0,0,0,0,0,0,0,0,0,0,0,0,0,0,0,0,0,0,0,0,0,0,0,0,0,0],"sum_hessian":[7.36E2,5.7E2,1.66E2,4.35E2,1.35E2,1.2E1,1.54E2,4.13E2,2.2E1,1.9E1,1.16E2,9E0,3E0,1E1,1.44E2,4.07E2,6E0,1E1,1.2E1,4E0,1.5E1,9E0,1.07E2,5E0,4E0,2E0,1E0,1E0,9E0,1.18E2,2.6E1],"tree_param":{"num_deleted":"0","num_feature":"5","num_nodes":"31","size_leaf_vector":"0"}},{"base_weights":[1.3070937E-2,-6.789746E-3,1.1028754E0,2.089655E-2,-1.3925972E0,2.149818E0,5.7381076E-1,-5.0500385E-3,1.8143108E0,-2.4779766E0,-1.0052027E0,-8.429327E-1,8.248859E-1,-1.2734127E-1,1.2415093E-1,4.774983E0,4.772699E-1,1.593133E0,-1.3862453E0,-3.2402897E-1,1.0090039E0],"categories":[],"categories_nodes":[],"categories_segments":[],"categories_sizes":[],"default_left":[1,1,1,1,1,0,1,1,1,0,1,0,0,0,0,0,0,0,0,0,0],"id":52,"left_children":[1,3,5,7,9,-1,11,13,15,-1,17,-1,19,-1,-1,-1,-1,-1,-1,-1,-1],"loss_changes":[1.5721222E1,2.7423765E1,5.9671125E0,3.262878E1,3.3957138E0,0E0,4.2524137E0,1.0949511E1,3.7306442E1,0E0,1.4089391E1,0E0,2.2307692E0,0E0,0E0,0E0,0E0,0E0,0E0,0E0,0E0],"parents":[2147483647,0,0,1,1,2,2,3,3,4,4,6,6,7,7,8,8,10,10,12,12],"right_children":[2,4,6,8,10,-1,12,14,16,-1,18,-1,20,-1,-1,-1,-1,-1,-1,-1,-1],"split_conditions":[4.79E1,4.4699997E1,4.895E1,4.315E1,4.52E1,4.3819708E-1,4.91E1,5E-1,4.375E1,-5.050856E-1,4.5550003E1,-1.7181484E-1,5E-1,-2.5955953E-2,2.5305666E-2,9.7328407E-1,9.728185E-2,3.2472807E-1,-2.8255817E-1,-6.6046774E-2,2.0566511E-1],"split_indices":[4,4,4,4,4,0,4,0,4,0,4,0,1,0,0,0,0,0,0,0,0],"split_type":[0,0,0,0,0,0,0,0,0,0,0,0,0,0,0,0,0,0,0,0,0],"sum_hessian":[7.25E2,7.13E2,1.2E1,7E2,1.3E1,3E0,9E0,6.91E2,9E0,2E0,1.1E1,1E0,8E0,3.55E2,3.36E2,2E0,7E0,1E0,1E1,1E0,7E0],"tree_param":{"num_deleted":"0","num_feature":"5","num_nodes":"21","size_leaf_vector":"0"}},{"base_weights":[8.408616E-3,-1.276585E-1,1.6719618E-1,-2.8195536E-1,7.8830525E-2,4.0062947E0,1.0869864E-1,-2.7292268E-2,-1.4892728E0,4.5786486E0,-3.0733727E-2,2.7158293E-1,6.405575E0,1.382963E-1,-1.8487289E0,-1.7002696E-1,2.2589438E0,-2.9204957E0,-9.625562E-1,6.363294E0,-3.876443E-1,1.0672657E0,-2.1609467E-1,-8.35351E-1,1.2427254E0,6.786444E-2,1.2764622E0,-2.8934183E0,1.1650143E0],"categories":[],"categories_nodes":[],"categories_segments":[],"categories_sizes":[],"default_left":[1,1,1,1,1,1,1,1,1,0,1,1,0,1,1,0,0,0,0,0,0,0,0,0,0,0,0,0,0],"id":53,"left_children":[1,3,5,7,9,11,13,15,17,19,21,23,-1,25,27,-1,-1,-1,-1,-1,-1,-1,-1,-1,-1,-1,-1,-1,-1],"loss_changes":[1.5685526E1,1.2479727E1,7.47981E1,6.8830215E1,8.296794E1,4.3063454E1,1.9432259E1,6.108057E1,2.6588966E1,3.791899E1,3.3812458E1,4.2630835E0,0E0,2.6126726E1,1.9112999E1,0E0,0E0,0E0,0E0,0E0,0E0,0E0,0E0,0E0,0E0,0E0,0E0,0E0,0E0],"parents":[2147483647,0,0,1,1,2,2,3,3,4,4,5,5,6,6,7,7,8,8,9,9,10,10,11,11,13,13,14,14],"right_children":[2,4,6,8,10,12,14,16,18,20,22,24,-1,26,28,-1,-1,-1,-1,-1,-1,-1,-1,-1,-1,-1,-1,-1,-1],"split_conditions":[5E-1,3.1650002E1,1.5E0,2.975E1,3.1849998E1,2.15E1,4.32E1,2.875E1,3.005E1,5E-1,3.335E1,1.585E1,1.3056474E0,3.96E1,4.85E1,-3.465657E-2,4.604402E-1,-5.952842E-1,-1.9619769E-1,1.2970294E0,-7.901348E-2,2.1754062E-1,-4.4046547E-2,-1.7026947E-1,2.5330454E-1,1.3832799E-2,2.601811E-1,-5.89765E-1,2.374647E-1],"split_indices":[0,4,0,4,4,4,4,4,4,1,4,4,0,4,4,0,0,0,0,0,0,0,0,0,0,0,0,0,0],"split_type":[0,0,0,0,0,0,0,0,0,0,0,0,0,0,0,0,0,0,0,0,0,0,0,0,0,0,0,0,0],"sum_hessian":[7.24E2,3.9E2,3.34E2,2.23E2,1.67E2,4E0,3.3E2,1.85E2,3.8E1,3E0,1.64E2,2E0,2E0,3.26E2,4E0,1.75E2,1E1,9E0,2.9E1,2E0,1E0,2.3E1,1.41E2,1E0,1E0,3.08E2,1.8E1,3E0,1E0],"tree_param":{"num_deleted":"0","num_feature":"5","num_nodes":"29","size_leaf_vector":"0"}},{"base_weights":[6.255214E-2,-1.17029235E-1,2.122726E-1,3.1673092E-1,-2.0943166E-1,5.249343E-1,-8.900092E-2,-2.4088602E-1,6.2756476E0,-6.4190185E-1,-8.341217E-2,3.2587957E-1,1.7366824E0,-2.3784518E-1,6.4908254E-1,1.6515796E-1,-2.9907753E0,-9.796578E-1,1.1439071E1,-7.7246535E-1,2.1398141E0,1.1657865E0,-1.4484076E-1,4.903893E-1,-9.813744E-1,1.977991E0,-2.2686691E0,-2.6660368E-2,-1.0693777E0,3.059378E-1,3.1461835E0],"categories":[],"categories_nodes":[],"categories_segments":[],"categories_sizes":[],"default_left":[1,0,0,0,1,0,1,0,1,0,1,0,1,1,1,0,0,0,0,0,0,0,0,0,0,0,0,0,0,0,0],"id":54,"left_children":[1,3,5,7,9,11,13,15,17,19,21,23,25,27,29,-1,-1,-1,-1,-1,-1,-1,-1,-1,-1,-1,-1,-1,-1,-1,-1],"loss_changes":[1.9383486E1,1.3212735E1,3.7066017E1,1.942337E2,1.4715869E1,4.5986454E1,2.223614E1,6.078905E1,1.9851743E2,2.3807554E1,1.6360256E1,3.63956E1,3.0583588E1,2.9473473E1,2.8170942E1,0E0,0E0,0E0,0E0,0E0,0E0,0E0,0E0,0E0,0E0,0E0,0E0,0E0,0E0,0E0,0E0],"parents":[2147483647,0,0,1,1,2,2,3,3,4,4,5,5,6,6,7,7,8,8,9,9,10,10,11,11,12,12,13,13,14,14],"right_children":[2,4,6,8,10,12,14,16,18,20,22,24,26,28,30,-1,-1,-1,-1,-1,-1,-1,-1,-1,-1,-1,-1,-1,-1,-1,-1],"split_conditions":[2.4849998E1,5.8500004E0,1.975E1,5.7E0,1.3700001E1,1.8650002E1,4.165E1,5.1499996E0,1E0,2.065E1,1.435E1,1.7650002E1,4.56E1,3.835E1,1.5E0,3.3664122E-2,-6.096093E-1,-1.9968352E-1,2.331624E0,-1.574515E-1,4.36158E-1,2.376221E-1,-2.9522872E-2,9.9955976E-2,-2.000334E-1,4.0317363E-1,-4.624225E-1,-5.4341787E-3,-2.1797109E-1,6.235926E-2,6.4128613E-1],"split_indices":[4,3,3,3,4,3,4,3,0,3,4,3,4,4,0,0,0,0,0,0,0,0,0,0,0,0,0,0,0,0,0],"split_type":[0,0,0,0,0,0,0,0,0,0,0,0,0,0,0,0,0,0,0,0,0,0,0,0,0,0,0,0,0,0,0],"sum_hessian":[7.19E2,3.27E2,3.92E2,5.7E1,2.7E2,1.92E2,2E2,5.3E1,4E0,6E1,2.1E2,1.66E2,2.6E1,1.67E2,3.3E1,4.7E1,6E0,2E0,2E0,5.8E1,2E0,9E0,2.01E2,1.48E2,1.8E1,2.5E1,1E0,1.34E2,3.3E1,3E1,3E0],"tree_param":{"num_deleted":"0","num_feature":"5","num_nodes":"31","size_leaf_vector":"0"}},{"base_weights":[3.5246126E-2,-2.1288486E-1,1.00081675E-1,2.3810435E-2,-1.108633E0,1.4635826E0,6.65343E-2,-2.848744E-1,8.649566E-1,-3.3639333E0,-7.593284E-1,1.7900248E0,-1.3900824E0,-2.927881E-1,1.5175878E-1,-9.8799214E-2,-1.9485734E0,2.3474736E0,-3.5097557E-1,-4.3564415E-1,-3.4193773E0,3.4292843E0,1.3676461E0,-5.8122706E-1,1.3193326E0,6.314657E-1,-2.947129E-2],"categories":[],"categories_nodes":[],"categories_segments":[],"categories_sizes":[],"default_left":[1,1,1,1,1,1,1,1,1,0,1,1,0,1,1,0,0,0,0,0,0,0,0,0,0,0,0],"id":55,"left_children":[1,3,5,7,9,11,13,15,17,-1,19,21,-1,23,25,-1,-1,-1,-1,-1,-1,-1,-1,-1,-1,-1,-1],"loss_changes":[1.1877947E1,3.2465363E1,2.6661615E1,3.1923592E1,2.2654846E1,1.5530071E1,1.7560823E1,2.7669062E1,6.0311035E1,0E0,2.3479832E1,4.311001E0,0E0,5.1916656E1,4.0270584E1,0E0,0E0,0E0,0E0,0E0,0E0,0E0,0E0,0E0,0E0,0E0,0E0],"parents":[2147483647,0,0,1,1,2,2,3,3,4,4,5,5,6,6,7,7,8,8,10,10,11,11,13,13,14,14],"right_children":[2,4,6,8,10,12,14,16,18,-1,20,22,-1,24,26,-1,-1,-1,-1,-1,-1,-1,-1,-1,